1830 64
英雄联盟 -0.577730 -0.748805 0.450668 0.399780 -0.766225 0.310907 0.290420 -0.308932 -0.591589 0.429900 0.566267 0.949712 -0.686091 -0.221266 -0.922761 0.385573 0.354666 1.303075 0.218064 -0.177849 0.585815 1.193887 -0.687074 0.918521 -0.176490 1.284369 0.454973 -0.909871 0.195329 -1.386491 -1.029561 -0.210614 0.846987 -0.454738 1.141353 0.148385 0.865074 0.048228 0.496563 0.489279 0.088683 -0.014956 -0.811622 0.212760 -0.333327 -1.071718 -0.629782 0.750095 0.036391 -0.108391 -0.102555 0.961313 0.677848 0.607588 -0.341991 -1.147442 -1.244592 0.658505 0.799236 0.272318 0.290218 0.622611 0.054413 -0.406801
QQ浏览器 5.915970 1.346658 0.375180 4.368527 1.294173 -1.112457 -4.279773 2.220594 0.381597 -0.903337 0.141288 2.831122 0.285575 0.687688 -3.519183 2.846716 -0.610888 2.464363 -5.571906 1.225364 0.578710 0.177364 0.083022 1.432746 -6.213054 0.282740 1.862701 -1.494710 0.307997 3.829119 3.559075 6.123512 2.744114 -1.994691 -1.229342 3.243894 1.018137 -4.241068 -6.291650 4.393027 0.244591 2.992771 1.648885 -0.254422 -3.832050 -1.426896 0.201020 -0.526629 -2.770881 2.966109 -0.324703 -0.446722 2.772321 -1.631972 4.487130 -2.976312 5.509027 0.055201 -4.098267 2.977867 -2.107814 2.009781 3.692875 1.478103
腾讯QQ -0.450251 0.084828 0.337556 -0.196692 -0.777633 0.085144 0.434737 1.806884 -0.502644 1.043186 -0.057820 -0.554925 -0.553381 0.161723 0.440185 0.122481 0.743447 0.231713 0.187407 -0.407467 -0.313937 0.502321 -0.558910 -0.019894 -0.894784 -1.180434 0.082263 1.713574 -1.494496 -0.456748 -0.060457 0.088339 1.335098 0.902326 -0.265626 0.478692 -1.652298 -0.304468 -0.827933 0.178944 -0.574714 1.449738 1.023844 0.005159 0.403052 1.438941 -0.470483 0.752704 -0.705006 0.613227 -0.469917 -0.303430 -0.504283 -0.206219 0.096614 -0.555226 -0.200761 -0.615347 -0.085835 0.395215 -0.197461 -0.632048 0.533496 -0.432044
百度浏览器 -0.505948 0.758570 -0.611890 3.770847 -2.525532 -3.702744 3.843189 1.604620 5.415263 2.529197 2.597068 -3.726472 1.033321 0.463918 -3.515916 -0.957741 -0.188127 -2.622214 0.976419 1.277731 -1.586945 -0.302717 -0.208744 -2.425839 0.582245 -0.591555 -0.473665 -3.668237 0.322665 1.788417 0.913997 1.475121 -4.993226 0.686718 -5.468676 -1.580707 1.211564 1.145669 0.668455 -3.963098 0.041695 -3.046587 -1.865724 2.425624 -0.209564 1.785868 0.670786 -1.935953 0.821499 -3.295526 -0.095138 -5.355284 3.591871 -5.053016 1.636214 0.866516 -1.376393 -2.436416 2.078486 3.318514 -2.192751 -0.081458 -0.532001 1.571297
穿越火线 -0.178012 1.873081 -0.033462 -0.273677 2.351934 -2.713360 -1.076221 0.754549 0.797879 0.848131 -1.990011 0.610731 -0.599121 -0.351006 -0.702761 1.646238 0.016249 -2.414497 0.368691 0.124511 -0.507935 -2.576971 -2.566405 0.657025 -2.590732 -0.735354 -1.042660 1.831049 -0.673266 1.559476 0.912353 -2.927101 -1.922285 0.732822 -0.759225 -1.201326 0.926099 3.915565 0.455967 2.519649 -0.742324 0.279248 1.321573 -2.204158 2.681402 -0.779257 1.156154 0.658028 0.461104 -1.445794 -1.169244 -1.687596 -0.683004 0.542057 -0.478892 1.435279 1.937717 -0.350495 -0.320808 -2.028976 -0.089192 -3.318578 -0.791776 0.724002
英雄联盟官方助手(TGP) -0.248659 -0.671505 0.894917 0.752081 -0.452008 0.386203 0.439838 -0.433821 -0.201338 0.625843 0.323462 0.430821 -1.326333 0.027249 -1.288443 -0.407768 0.827724 1.752572 0.304688 0.318860 1.263553 0.010434 -1.267917 0.444725 -0.473259 0.380538 0.210156 -1.048557 0.209414 -1.758079 -1.297055 -0.827150 0.932214 -0.441872 1.847550 -0.381783 1.799752 0.822471 0.883755 1.019627 0.361318 0.274828 -0.769030 -0.232744 0.116150 -0.754686 -1.634897 0.448794 0.370842 -0.870741 -0.553488 1.128000 0.673353 1.116785 -0.302440 -1.820595 -1.182413 0.730395 0.979906 -0.103485 0.372161 0.812663 0.352136 -0.826244
地下城与勇士 2.494205 -1.363033 -3.245953 2.773427 -1.386501 -0.893076 0.110832 1.961177 -0.744460 1.357043 -0.137833 -2.042456 1.121466 3.545863 -0.759642 1.376787 1.385288 -1.084672 -3.380954 -0.525146 3.407697 -3.006332 0.016574 3.243077 3.790568 -4.942938 -2.070755 -1.461040 1.229799 0.954608 1.691564 -1.266664 0.673701 -0.113856 0.961444 -1.460591 -1.270646 -4.996477 0.518487 -3.754405 1.929757 -1.925307 -1.229290 -2.533629 -1.552721 3.926480 -1.686971 -0.756483 -1.035987 1.187650 1.146275 1.757990 -1.722564 0.672477 -2.395678 -0.994487 1.701170 -0.369953 -2.123982 0.648190 -1.314022 0.277844 -0.231959 -1.027285
QQ音乐 -0.498068 0.162865 -0.165554 -0.036763 -0.654365 0.370740 0.067093 2.589809 -1.124511 0.828221 0.487220 0.146043 -0.384745 -0.567330 0.507253 1.173499 -0.264014 0.725055 0.803650 -0.393598 -1.170324 -0.476434 -0.979282 1.157668 -0.206870 0.874228 -0.186138 1.176396 0.234314 -0.506993 -0.994671 1.189786 1.540045 0.609599 0.449988 -0.803451 0.080846 0.222008 -1.573006 0.310563 0.438684 0.614173 0.361020 0.751858 0.618995 -0.739171 -0.375045 -0.793911 -0.846971 -0.124189 -0.254541 0.889990 -0.440796 0.229881 0.198880 -0.845014 0.393768 -0.093770 -0.261927 -0.642677 1.134837 0.189608 0.632215 0.713712
QQ飞车 -2.256466 0.619813 -1.703822 -0.858602 -2.066514 0.537978 -0.224970 0.561532 -0.011832 0.465189 -0.290000 1.714929 -0.209930 0.838257 -0.073366 0.667254 0.734720 0.264805 1.420275 -0.841395 -0.886560 -0.359689 -0.417920 0.617222 -0.183932 -0.412509 0.398537 1.428472 -0.511175 -0.723231 -0.353280 0.028191 -0.102821 -0.200296 -0.442451 -2.320937 0.949027 1.135806 0.060971 -0.381008 -1.925458 2.151448 0.231582 -0.707192 -0.209681 -0.970114 0.910185 -1.268915 -0.760917 0.247759 -1.979569 0.618945 0.413423 -0.076532 -0.834402 1.018368 1.141846 -0.373378 -1.093233 -1.585143 -0.638747 0.461586 0.044389 0.676781
魔兽争霸III冰封王座 3.270029 2.416991 1.209787 1.607981 0.176294 0.382492 0.859512 1.910149 3.941017 0.335027 1.626855 -2.071459 1.567147 -1.760339 -2.622097 -3.305846 -0.092398 -3.552398 0.746677 2.305161 1.549683 -1.513715 3.598257 -1.693680 -1.890757 -0.730916 0.433607 -0.896739 -0.736258 -0.397996 3.383139 3.232650 -1.666055 1.814457 2.487948 -1.526615 -1.495572 -2.296256 -3.159211 0.624261 3.683966 0.497679 -0.976947 -0.192524 0.760687 0.800481 2.127019 2.051860 -1.699907 0.371539 0.260028 1.595927 0.048585 0.300372 1.678800 -1.036402 -0.449802 -2.122996 -1.278144 -0.673539 -0.820921 3.838475 3.384324 0.735908
腾讯QQ稳定版 0.550912 -0.195624 -0.559164 1.514701 1.117962 -0.035655 -0.968983 0.076021 0.123844 0.479301 -0.268027 2.000020 1.280186 -1.013278 -1.375385 2.103814 -2.920825 0.995947 -0.623926 -0.010041 -0.529786 -3.490403 1.316724 3.700632 1.766723 0.924502 -1.090664 -2.042915 3.157940 1.236323 0.506824 1.593493 -0.941444 -1.382922 1.290355 -3.158081 2.723440 0.583200 -0.508307 -0.554113 2.360674 -2.892853 -1.317558 0.794878 -0.467188 -5.153985 2.094829 -2.955850 1.111485 -2.537974 0.001149 2.225457 0.479387 0.608765 -0.129527 -0.131034 0.565112 1.362646 -2.298115 -2.369670 0.521504 1.669778 0.373364 2.923719
逆战 -1.040455 -0.154846 0.865134 1.027052 0.259772 -0.225463 0.821024 -0.253472 1.484101 1.890531 -1.402489 -0.851118 2.111052 1.017714 0.103658 0.370936 -0.940433 -0.300087 -0.204131 -0.644715 -2.013582 -1.984624 1.907473 -0.500422 -1.737538 -0.219565 0.236322 1.584319 1.089132 0.276622 0.193931 1.156748 -1.210972 0.540838 -0.850300 1.911725 -1.290451 0.303157 2.588500 -1.264958 -2.318131 1.091878 1.037457 -1.801984 -0.264888 -0.581222 -0.733603 -2.867157 0.520381 -0.630521 1.300428 1.866520 -0.283912 0.049263 0.133372 -0.917303 -0.052801 -1.794778 -0.895984 -0.244324 -1.693612 -0.813595 -1.497678 0.865505
英雄联盟盒子 -1.132829 -0.528135 -0.506627 -0.720579 -0.743629 -0.596016 0.495826 0.468926 -0.330446 0.426132 0.926859 1.273599 0.402843 -0.946302 0.289447 1.855614 -0.053132 -0.475441 0.726871 -1.240767 -0.594096 2.879143 0.286830 1.789533 0.557993 2.689483 1.073445 0.075946 -0.426879 -0.802629 -0.116047 0.122251 0.368304 0.431244 -0.052231 0.892473 -1.001296 -0.408456 0.033483 -0.615808 0.088388 -0.707637 -0.631272 1.050370 0.249595 -1.303584 1.857392 1.588702 -0.578458 1.117213 0.934478 0.055177 0.147747 0.326302 -0.449273 0.289785 -1.215590 0.070058 0.525154 -0.081189 0.126537 -0.111526 -0.631187 0.367741
QQ游戏大厅 -0.240821 0.437574 2.003306 0.714622 0.285545 -0.694351 0.435413 0.954288 -0.610023 3.054851 -0.566529 -0.336084 -0.948760 -1.332722 1.919095 -0.970769 -1.484663 2.721566 0.135840 -1.003276 0.214832 0.511310 0.519594 0.502770 0.449531 -3.583429 0.186426 1.125149 -0.516308 1.142820 0.827567 1.671909 0.887058 0.625758 -0.436691 0.823526 -1.238779 0.366463 -3.622486 -0.812221 1.117327 -1.211543 1.405075 1.033509 1.907031 -0.752550 2.991712 -0.722232 2.601783 -1.586699 -1.384877 -0.319981 0.287402 -0.073317 2.487700 -1.882176 -1.608354 -0.735297 -0.881177 -0.016049 -0.982818 0.689216 0.900787 1.621510
守望先锋 0.491433 0.049082 0.796963 -0.166909 0.256729 1.379500 -2.181891 0.175639 -0.390385 -0.399436 1.836382 -1.053695 0.971812 0.217943 -2.465072 -0.847820 -1.006003 -0.870574 -1.092060 -0.087164 -1.281144 1.043113 1.337329 -3.871903 0.582075 -1.876541 -0.289494 -0.291706 0.487235 0.647300 -2.026990 -0.154328 -1.049817 -0.881727 0.141806 -0.772076 -0.941582 -1.922428 -1.146156 -0.212098 -0.704804 -0.506317 -0.758574 0.582275 -1.850791 0.896857 -1.997822 0.363404 0.077126 -1.368342 0.275806 0.555634 0.472302 -1.007432 -0.677252 -0.585222 -0.408226 3.281446 -1.015313 1.944700 1.866568 0.320520 1.847358 1.000359
UC浏览器 0.913268 -0.271088 2.117714 1.554314 0.364560 -0.963586 -0.815258 1.161748 0.017163 1.133817 1.195745 -0.668256 -0.956757 -0.187789 -1.589797 0.788980 2.097869 1.078841 0.215695 0.421560 2.597689 -1.758307 1.091255 -1.052564 -2.318443 -2.350400 1.550094 -1.355234 -1.264011 -0.236478 3.213771 -0.770746 -2.002501 0.624134 0.807677 0.088435 0.160839 0.099175 -2.344532 1.867471 0.513179 0.848202 -0.648682 0.492390 -0.607579 -0.203499 -0.029296 0.100516 -2.620770 1.454938 0.916942 -0.311387 -0.154260 0.786578 0.757696 -0.782910 -0.909293 -0.495450 -0.427285 1.209457 -1.539115 0.500390 2.411592 -0.080543
QQ炫舞 0.784489 -0.704398 0.543266 0.062428 0.484337 0.452658 3.604304 0.012124 0.465236 -0.743907 -0.857339 0.678805 0.242569 -0.070963 -2.338208 0.069967 -0.804370 0.305180 -0.609193 -0.652951 -0.182996 -1.259498 1.749512 1.981578 -1.797842 -1.687676 3.396857 -0.150641 -2.308544 -0.117839 0.752800 1.246344 -0.266027 0.226457 -2.373826 -1.673066 0.761044 0.519963 -1.854504 -0.054143 0.654218 -0.796128 -0.928335 0.056842 0.333926 0.541715 0.453423 -0.575319 -1.604157 -0.112794 0.205803 -0.426902 0.263663 -0.603401 0.196529 -1.269059 0.252985 -0.964985 -1.788941 1.763638 -0.645120 0.685786 2.018852 1.500690
NBA2KOnline 0.911787 0.016854 -0.938030 0.719159 0.745088 1.595523 -0.329799 -0.456489 -0.610247 -1.172442 0.271044 -0.600440 -0.311662 -0.851971 -1.782237 -1.541438 -1.286454 0.813780 1.125885 -0.289229 1.883845 0.012977 -0.217520 -0.156997 1.111731 1.036124 0.591412 2.138314 -1.405375 1.320891 0.054681 -0.173462 0.710252 0.638044 1.256274 -0.338104 -1.067013 1.038068 0.326112 0.100220 0.845528 1.972844 -0.470903 0.294727 0.409923 -0.127555 -0.115374 -2.517517 -2.054777 -0.289960 -0.066365 -0.462759 0.943908 -1.481478 1.050712 0.475946 -0.445565 0.331738 0.296218 -1.161324 0.042041 -0.549051 0.998081 1.503615
腾讯视频 0.210936 -1.577918 0.510781 -0.026429 1.181505 -0.620315 0.356314 0.312552 2.369883 0.436078 0.630015 -0.144063 -0.088632 0.532239 -0.713026 1.158928 0.714587 0.962980 -1.677715 1.108177 1.995586 -1.003099 0.395309 -1.774582 0.019275 -0.026246 1.537273 1.428858 -0.449913 1.953062 3.204744 2.310493 -1.029325 0.301518 -1.408504 0.456288 0.422985 -0.444566 -1.357636 -0.788487 2.080366 0.910375 -1.583349 2.018868 -0.404616 -0.385003 -0.377237 0.565728 -0.077628 -0.784045 -2.254014 0.980053 -0.380545 -0.451481 0.327201 1.520553 -0.874406 -0.156546 -0.796842 0.803138 -2.894378 0.551538 -0.434018 0.666066
11对战平台 3.031078 2.334203 0.813306 0.991692 0.268434 0.956416 0.251238 2.501227 4.279921 0.365965 1.957858 -2.536419 1.651396 -2.073451 -2.829480 -3.575427 -1.073529 -3.637388 0.906822 3.239601 1.729020 -1.373518 3.618528 -1.591127 -1.231144 -0.801140 0.634175 -1.192159 -1.427168 -0.975784 2.680854 3.289781 -1.862883 1.516405 2.843301 -1.103036 -1.438657 -1.932080 -2.571088 -0.090399 3.911458 0.935227 -0.829350 -0.005873 1.343612 1.374677 2.328799 2.326072 -1.785491 0.680497 0.545925 2.299350 0.436864 -0.070731 1.094070 -1.944272 -0.637340 -1.941739 -1.067342 -0.487448 -0.742235 4.101825 3.573979 0.226445
世界之窗浏览器 1.551190 -1.710947 1.394718 0.728851 1.808297 -1.444327 1.302216 -0.969423 0.547126 0.640812 2.715763 0.153646 -0.716169 0.581472 -0.494318 0.083415 0.865443 -0.061613 0.372410 -0.482961 1.457535 -0.729367 0.159174 -1.171320 -0.549999 -2.228950 1.396250 -0.231545 -1.811856 1.416028 -0.255494 0.741832 -1.754760 0.931602 -0.183883 -1.752324 -1.395115 -0.669636 1.129568 1.334982 1.344908 0.260988 -0.009411 0.777922 -0.037401 0.451853 -0.154716 0.617070 -0.616529 1.516923 -0.166426 -0.878928 -0.610409 0.085134 1.140775 -2.155402 0.072097 -0.499885 -1.105488 -0.484239 -2.319888 0.859064 1.575244 -0.899592
猎豹安全浏览器 1.507520 0.214900 -0.116081 0.065017 -0.073627 -0.866219 1.041795 -0.035249 0.369601 1.227713 1.401616 -0.235339 -0.370415 1.141908 -2.631870 -0.755720 1.006069 0.512513 -1.442023 0.983260 1.718259 -1.846967 0.837194 -0.198718 -3.538396 -2.444189 -0.155050 -0.448977 0.309716 0.759999 2.238201 2.080132 0.757373 -0.332009 -1.279799 0.008313 -1.885539 -0.744131 -0.675648 0.519287 0.951075 0.110782 -2.027690 1.692199 0.825525 -0.929792 0.093705 0.334887 -0.644596 0.170483 0.902191 -0.447117 0.692317 -0.120370 0.209692 -0.206934 -0.226731 0.172918 -1.044297 0.058709 0.190316 0.337567 2.948277 -1.125473
梦幻西游2 0.773138 -2.450049 0.067506 1.673656 -0.529350 0.577608 0.355795 0.754757 1.922839 -0.336130 0.426517 0.419714 -0.554599 -0.977834 -2.521933 0.367114 -0.458756 1.112670 0.027782 1.074749 1.556851 -1.369492 0.978583 0.074531 -0.981110 -2.153301 -1.736004 -1.481264 1.111575 -0.038254 0.881142 1.649774 -2.012461 2.034982 -2.314260 -0.162494 -0.794622 -1.186693 -1.108875 0.923793 0.519564 0.567215 -0.852899 1.073320 0.320344 1.049559 0.862595 1.036671 -1.092068 0.382221 -0.396580 -0.401476 2.197291 0.956183 2.590003 -1.703733 0.710643 1.343984 0.770947 2.306699 -2.341495 -0.801533 1.720690 2.096557
谷歌浏览器 1.000961 0.363895 -1.182037 1.997585 2.184922 0.702289 0.905727 1.490331 1.624614 0.380249 -0.829408 -0.015104 0.106620 -0.010377 -1.183796 -0.309654 1.249761 0.589933 0.850814 0.085095 1.267239 -0.102956 0.876406 0.570904 -1.695663 -1.744380 0.012331 1.596187 -0.667253 -1.325375 1.118911 -0.952758 -0.574299 -0.224225 0.446340 -0.061863 0.357293 0.253058 -2.011146 -1.178614 0.027970 -0.061856 -0.183000 1.110235 -0.143772 0.770024 0.941269 0.664977 -1.353885 -0.077472 -0.581758 0.370208 -0.559838 1.719410 0.063436 -0.328371 -1.385393 0.005209 0.508521 0.535099 0.158117 -0.009246 0.615445 0.124071
使命召唤OL 0.550324 -0.605403 1.004017 0.407726 0.248630 1.818709 0.890124 -0.016373 0.791005 0.774706 0.859490 1.141047 0.777296 -0.455956 0.280431 -1.171050 -0.671226 0.337404 -0.677468 2.565149 -1.128312 -1.741886 0.589184 -1.095633 0.063470 -0.004457 1.296679 1.966853 -0.486991 0.646272 -0.344423 -2.389693 0.031165 0.278444 0.024204 0.235332 -0.434083 0.163210 0.678953 -1.068214 -0.463590 -0.890262 -0.017687 1.237520 -0.616633 -0.123070 -0.607065 -1.795190 0.272223 0.514262 -0.279266 0.705449 -0.804298 0.760712 1.744361 1.499575 1.167812 0.950830 0.773130 0.557595 0.211472 0.208105 1.458243 -0.470055
QQ2013网吧版 1.401665 -0.032389 0.318458 1.288512 0.407113 -1.794405 1.171526 1.929662 -0.194495 0.026085 0.994388 -0.956394 -1.527569 -0.252066 -0.556890 -1.724959 0.649551 1.861418 1.037221 -0.445627 -0.454743 -1.378436 -0.727222 -0.302690 0.235914 -0.521458 0.924658 0.893957 0.435733 -1.309790 1.403296 -0.349725 -0.665187 0.425844 -0.051616 0.475104 -0.136310 2.139969 0.107413 -0.398205 0.993765 -1.357132 -0.690427 0.695395 -0.729290 0.829016 1.378137 0.721380 -0.449822 0.621587 -0.106141 0.138860 0.183658 1.219225 -0.141412 -0.436996 -0.850623 1.481998 -2.804805 0.020971 -3.660411 0.790057 0.631030 0.610047
梦三国2 2.625757 -0.153519 0.823991 1.376491 -0.294315 -0.318367 0.459055 0.451243 0.636969 -1.428183 -0.362612 -2.455712 -0.939272 1.832872 -1.029670 1.181706 -1.367101 -0.712674 -0.788038 -0.470992 -1.353765 -1.066509 -0.701068 -0.462321 -1.234772 -2.685398 -0.057716 1.428169 0.132842 0.844655 0.419192 1.252065 0.412071 -0.393347 -1.045677 -0.625535 -0.494204 -1.100878 -0.928189 -1.433591 1.426489 -0.115206 0.504078 0.369919 1.425573 1.497417 -0.306252 -1.042060 -0.949317 0.509631 -1.089617 0.251465 0.160115 0.256668 0.895197 2.484314 0.589753 -0.814553 -1.332535 -0.400031 -0.632425 0.625893 0.536690 1.267110
天涯明月刀 1.526991 -0.783659 0.307517 1.277090 0.838457 -0.206382 -0.786493 0.170690 0.890436 -1.038847 0.244614 0.693930 -1.153264 -0.155749 -1.106997 -0.560703 1.200359 -0.863161 -0.920864 1.868259 -0.353333 -0.405713 0.141143 -0.540641 -0.675751 -1.307774 -0.316202 0.816354 -2.243969 -3.125109 0.406136 2.910291 -0.247862 -0.988312 -0.810632 0.319886 -0.802458 -1.317127 -0.145322 -0.702730 0.175557 -1.191765 -1.121748 0.204791 -2.015656 -0.284042 -0.489517 -1.846368 0.111355 -1.351089 -0.017761 -0.292976 -0.560594 -1.539105 1.149251 0.002420 0.942104 0.097241 0.635081 0.654650 -1.479921 -0.471736 2.292071 1.811783
FIFAOnline3 0.202333 0.991547 0.187194 1.846164 1.083595 0.218491 -1.893057 -1.256489 1.365375 -0.330277 0.512992 -0.290123 0.318457 -0.983132 -1.390894 -2.224985 -1.973730 1.524646 -1.383047 0.482848 -0.916039 -0.463145 1.163429 1.457987 -0.178807 -0.085925 0.286314 -0.887261 0.266452 0.198110 0.609352 2.035461 -0.267428 -0.829008 1.231563 -1.120658 -0.755193 -0.072575 -0.628375 1.415160 -0.603434 0.200911 0.443769 1.440655 0.458684 -0.805489 -2.035674 -0.429737 0.499692 1.490173 -0.843034 -1.171379 1.632576 -0.730584 0.999525 0.939115 -0.253137 -0.553272 -0.915139 1.685822 -0.740673 -0.284081 0.162552 -0.562213
起凡游戏平台 0.799863 -1.378782 -1.076166 1.554637 0.349795 0.289832 1.166985 2.095127 0.649157 1.545823 -0.254202 -0.664204 0.157443 0.006219 -0.847848 -2.530048 1.388055 0.458545 -0.479170 -0.811039 -0.801531 -0.844823 1.129375 0.500696 1.328851 -1.081030 0.612442 -0.547706 -0.552991 1.311272 2.795486 1.215369 -0.738434 0.290052 -0.246296 -0.460851 -0.468335 -1.073340 -1.620991 0.610223 0.045184 0.454088 -0.450131 1.917329 0.633855 -0.952314 0.077311 0.420810 -2.200010 -2.128183 0.694201 -0.094650 -1.741516 -1.345837 0.446826 -1.670975 2.947359 0.682592 -0.000331 0.382651 -0.885543 -0.381593 1.089976 0.190409
炉石传说 2.093201 -0.579605 0.660571 0.927087 -1.456726 1.197224 -1.159288 0.023053 1.089811 -0.377039 0.902088 -1.079789 -0.790374 -1.110593 -1.623975 -1.853366 -0.242900 -0.006167 -2.003348 -0.025919 -0.044859 0.633029 0.068488 -0.526058 -1.130919 -2.614861 0.306411 -0.192121 0.434917 2.408186 -0.888418 1.942631 -1.531631 0.149954 0.124594 -0.236219 -0.069256 -0.213934 -0.181318 0.482405 0.346214 -1.188803 -1.019930 0.857065 -3.250445 0.571456 -0.690672 1.380837 -2.165342 -1.151533 1.639935 0.357824 -0.253622 -0.347319 -0.052441 -0.685809 -1.881183 1.426786 0.177956 2.335396 0.578548 2.255046 0.870946 0.039172
英雄联盟优化版 0.754062 1.392132 -0.518921 0.764402 -2.303776 -0.204606 -0.000507 2.580463 -1.205615 -0.273946 0.834962 1.829674 0.551690 0.117407 -0.700112 0.998157 -1.133573 -1.125078 -1.842685 0.289599 -0.928559 -1.797897 0.213083 -0.305737 1.393430 -1.584242 0.107445 -0.659392 -1.746912 1.525389 1.501007 2.624708 -2.166140 2.579188 -1.163433 0.108262 -1.959943 0.282480 -0.603986 -0.685168 0.324237 0.242187 1.015362 0.489062 -0.018176 -1.293204 0.850228 -1.077272 -1.010455 -0.208250 0.448620 0.056557 -0.507231 -0.588153 0.432588 0.984713 0.649208 0.302424 -3.054610 1.265593 -0.434923 -1.089984 1.806784 1.321358
腾讯对战平台 3.672722 0.845012 1.718037 1.686308 -0.221343 -0.716361 3.081480 -0.631832 -0.148860 1.667903 0.296647 -1.767316 -1.074601 -0.429271 -0.752254 -2.437725 1.054762 -1.653797 -0.698677 -1.333661 0.319241 -0.417633 2.996518 -0.867258 -1.041568 -1.621966 0.137574 -0.362568 0.136253 -1.001314 4.133836 0.805571 -1.709113 3.199773 0.023978 -1.147196 -2.515812 -3.174973 -2.122244 4.202214 1.597580 0.125092 -1.471359 0.887929 -1.788636 -1.873782 1.274118 -2.380109 -1.494620 -0.838429 -2.746734 0.031762 0.138090 1.461379 1.493965 0.985711 -0.109949 1.265506 -0.596101 0.374113 0.853275 1.933472 -0.994856 -0.644651
剑灵 1.943733 0.079847 1.647476 1.646798 0.341657 2.207719 1.132878 0.642395 1.423522 -1.014917 1.737585 -0.886790 0.442304 0.853415 -0.502057 1.084376 2.309034 0.744630 -0.588078 -1.052776 -0.665903 -2.093586 1.366070 0.506867 -0.403211 0.216698 -1.509433 1.099277 -1.289031 1.026954 -0.345909 0.744633 -1.952180 0.063304 -0.341916 1.488772 -0.743845 -0.453749 -0.776667 -0.773671 -0.151737 -0.704505 -0.607070 -0.642584 -0.163240 -0.253762 -0.276826 -0.550634 -0.285555 -1.009819 -2.100653 -0.503766 1.616087 -1.345705 -0.391456 -0.698120 1.082806 -0.162110 -0.337258 1.994075 -0.565880 0.996830 2.224660 -0.197237
红警2共和国之辉 1.993948 -0.019662 1.439505 1.133721 -1.201807 -0.225093 -0.223133 -0.194939 0.046829 1.114584 -0.919518 -0.297036 -1.723509 1.105357 -0.205625 -2.255841 -0.308737 0.254619 -0.519154 -1.235613 0.415720 1.385298 1.387217 -0.758972 0.353803 -1.127611 0.719634 0.838857 -0.730765 -0.058363 2.135705 -1.347980 -3.031495 1.613554 -1.734798 -0.747258 0.025831 -0.008981 0.679853 -0.018862 0.125614 -0.110147 -1.415175 1.575214 1.134301 -1.579774 -1.329503 -0.628765 -0.331329 -0.602884 -2.378572 -0.200534 -0.422974 2.094376 0.621148 -0.077397 -0.009972 -1.321042 -0.014022 -0.992445 -0.663901 0.125732 2.072360 1.388657
新倩女幽魂 -0.705328 -1.535854 0.938128 1.312115 -0.258414 -0.211839 1.067112 0.333460 0.536192 1.063477 1.484548 0.934956 0.787528 2.353717 -1.392063 -1.970029 0.319149 -0.288541 1.599524 0.046277 -0.776931 0.869700 0.199438 1.015559 -1.182837 -0.138611 0.748167 -1.018471 -0.813247 1.187787 0.382091 2.017733 -3.106627 0.395222 -2.439019 0.059496 -0.365219 0.350886 -1.195006 -2.584232 0.744748 -0.526302 0.313668 0.975312 -0.409494 2.621188 0.053223 -2.589978 -0.074760 -2.292202 -0.459122 -2.120682 2.179678 -1.592899 -0.485258 1.547441 0.311423 0.193763 0.754654 1.424290 -1.896753 0.557023 1.251096 1.253441
反恐精英Online 0.196294 -0.309016 0.159000 0.113617 1.513062 0.407608 -0.285009 1.184031 0.566184 0.611501 1.632574 1.565448 -0.635354 1.111172 -0.701823 -0.206628 -0.767705 -0.552629 -0.110038 -1.706075 -1.590538 -1.142770 0.406757 -0.747659 -0.644149 -3.045539 0.309918 0.792986 -0.498695 0.324953 2.934540 -0.683557 -0.808121 -0.057166 0.568683 0.469328 -0.648637 0.303337 0.799553 -1.792654 -0.163464 1.311659 -2.734556 -0.580471 1.614982 0.009098 -0.217089 -0.632316 -0.038152 0.825616 0.478714 -0.868757 -0.860908 -0.580235 1.961654 0.066923 1.108492 0.947985 0.347458 1.582223 0.159288 2.190013 -0.700650 1.469108
坦克世界 1.200681 -2.387851 -1.569491 0.673230 0.645808 0.368947 -0.090821 1.675489 0.188390 -0.344831 1.038734 -2.360218 0.494092 -0.797111 -2.924482 -0.054613 -0.160370 2.179103 -0.959425 0.022986 -1.246879 -0.718423 0.375289 -0.535958 -2.017762 -1.291664 1.296558 0.333433 -0.815650 1.448429 2.645000 0.354624 -2.392715 1.247745 -0.777787 0.481069 0.310100 -2.990195 0.639733 -0.610575 -0.079477 -0.903901 -0.371920 0.937297 -1.806690 -0.632960 0.791037 -0.868769 2.699475 0.225604 0.019814 -1.075216 -0.206989 -1.178656 3.167217 0.269457 -0.008176 -1.508861 -0.529652 0.569526 -0.223662 0.221487 2.002788 0.319130
浩方电竞平台 2.526733 1.224211 2.199383 3.754639 -1.574660 0.542573 2.262452 -1.596356 -1.435278 0.760934 1.054531 -0.643929 -0.616230 0.799133 -0.449046 -2.152480 -0.235639 -1.481310 1.171617 -0.314901 -0.060069 -0.533569 3.384585 -0.533687 -1.643780 -1.177630 -0.503187 0.476395 0.589666 0.479248 3.554316 0.875104 -1.089546 1.754836 0.988381 -1.102787 2.131841 -4.715973 -0.882704 1.307090 0.434292 0.872106 -1.165980 2.628136 0.599998 -1.497325 0.941147 0.504024 -1.628916 -1.243101 -0.499360 -2.200717 -2.997611 0.525384 2.884115 0.298351 -1.627943 2.166180 -1.902141 0.660975 -1.549158 -0.229758 1.347555 0.532213
街头篮球 0.902594 -0.425730 -0.146820 1.355790 0.681433 0.723457 1.253592 -0.574364 0.772790 -1.138280 -0.356312 -0.762739 0.061508 -1.322359 -0.142124 -1.617402 0.358357 0.114265 -2.283414 0.081949 -0.489544 0.482691 -0.665564 -1.730048 -0.474299 -0.813987 0.095776 -0.700116 -1.039633 0.593236 0.315627 -0.207525 -1.263733 0.859409 -0.082283 -1.098316 -0.035500 -1.654898 -0.770487 -2.249458 1.232509 2.320061 -1.144097 0.869254 1.197925 -0.622011 1.529281 -2.582172 0.429046 -0.064607 1.541526 -1.502081 1.268606 -0.377957 -1.073740 -0.671340 -1.144634 0.157388 -0.295670 1.521347 -2.602793 0.740557 0.924633 0.161628
劲舞团 1.278832 0.980843 0.495738 1.550402 -0.164166 1.173742 2.156569 2.523211 0.496764 0.217956 1.084486 1.617872 -1.922866 1.986615 -2.177926 -0.069812 -0.670857 1.221342 -0.089895 -0.185608 0.220462 0.288193 -0.172991 -0.145633 0.665760 -2.073326 -0.302959 0.813634 -0.565980 1.211227 1.093268 2.009374 -1.645285 -1.163065 -1.847857 -0.428722 0.132810 -0.901624 -2.284394 0.735814 2.767575 -0.426051 0.103198 0.868902 0.744125 -1.236978 -0.214945 -0.902122 0.769627 -0.245579 1.364947 -2.096119 0.270115 1.052712 0.293995 -1.733317 -1.191546 -0.869836 1.025796 0.830652 -2.400216 0.045702 -0.393277 -0.187265
跑跑卡丁车 2.157712 -0.383731 -0.487103 0.754558 0.565330 0.827714 1.112535 -1.622530 -0.403424 0.558360 -0.756811 0.946956 -2.826174 -0.654103 -0.746190 -1.049767 0.358687 -0.589102 0.526487 0.050428 -0.905780 -0.776991 -0.133285 -1.126000 1.687208 -1.478325 2.377307 0.681312 -0.569516 1.902668 2.450153 0.923053 -2.162353 -1.790200 -0.693415 -0.910409 -0.108131 -0.498457 -0.690435 -1.468129 -0.869736 1.472960 -0.099350 -0.344551 1.063193 0.645714 0.608666 -0.720146 0.833403 0.997291 -0.083459 -0.176201 1.807200 0.597908 0.059582 0.077131 -0.762288 0.696615 -0.142014 0.677492 0.481765 0.818290 1.314056 1.009024
搜狗浏览器 0.561314 -1.809053 1.083910 1.655064 0.042668 -0.243132 0.579744 0.609841 1.668947 1.113560 -0.494666 -1.850439 0.650604 -1.898763 -1.100738 -0.062015 1.262076 0.043672 0.495870 -0.413628 -0.722497 0.567728 1.277241 1.333598 0.476871 -1.071716 0.385830 1.085560 0.915417 0.827207 1.105697 0.981940 0.425091 0.334224 1.426111 -0.404343 0.112627 -2.216726 -1.386563 0.570379 0.038115 -0.673119 -1.400185 -1.485968 -0.825240 1.744340 -0.724915 -0.104881 -0.846439 -0.917841 -0.967464 -0.614502 -0.205936 0.467591 1.410860 -0.546535 0.524179 0.571208 -1.063711 0.365986 -0.742384 1.637013 1.259405 2.991515
枪神纪 -0.900483 -0.319274 -0.973372 -0.575289 -0.035094 0.052274 1.229532 -1.527487 0.067264 -0.919630 0.564173 -0.187255 -0.309330 0.167248 -0.028983 -0.137658 0.155139 -1.145423 -0.241523 -0.107241 -0.578593 -1.855917 1.006206 -0.912654 -1.663818 -1.080899 0.669264 2.802300 0.793070 -0.348071 0.044074 -0.558469 -2.345188 1.926114 0.209466 0.854157 -0.978337 0.092677 0.214506 -1.599568 -0.924380 -0.606821 0.246741 1.133222 0.185573 0.154260 -0.384088 -2.137783 1.107207 -0.248391 -0.343007 -0.000004 -0.109522 -0.857148 -0.428562 -1.080500 1.172029 1.342722 -0.564611 0.696728 0.189170 1.058718 -0.202745 1.705247
求生之路2 0.560261 -0.259898 0.956141 1.479354 -1.231192 0.327929 0.202625 -1.660090 0.742955 -1.255037 2.669322 0.748486 -0.466260 -0.677970 -2.847698 -1.598667 0.186478 -0.471047 0.120940 -0.987395 -1.038153 -0.126184 0.176659 -0.432790 -0.033254 -1.047230 1.689962 2.777779 0.540402 -0.622348 1.640836 -2.176798 -2.950963 -0.211012 -1.321728 -0.518477 -0.593677 -1.009101 0.065033 0.376780 0.762508 1.310998 -0.579905 -0.849923 1.047175 0.282131 -0.156344 -0.620508 -0.496613 -1.263094 -1.033769 1.492488 -2.018257 0.235567 0.954326 0.032165 -0.591764 -0.271422 -0.950857 0.713219 0.049380 -1.080169 1.381354 -0.118341
CS1.6中文版 1.837473 1.494517 -0.506936 0.663327 0.319232 1.165138 1.136391 -1.377735 0.162039 0.366606 1.815544 0.475661 -0.128886 0.383173 0.488603 -1.674356 -0.710197 1.347405 -0.507891 0.106059 -1.251113 0.131485 0.964325 -1.116031 -0.019706 -1.843511 1.896153 1.490147 -0.512114 -0.468929 1.785951 0.156886 -2.873785 1.612814 -0.670748 -1.445533 -0.796650 -0.664799 0.764712 -0.569975 -0.538929 1.137065 -2.621425 -0.522720 2.237617 -0.210998 0.285441 1.246613 0.469568 -2.072235 -0.147116 -0.281016 0.063321 0.184884 0.458277 1.244699 -0.360915 0.824380 0.939179 -1.037678 -1.232522 0.355929 0.282645 0.957446
战舰世界 2.044206 -1.753157 0.093299 -0.508079 1.069777 -0.737365 -0.538817 -0.591695 0.055481 0.257244 0.351329 -1.312145 1.443228 -1.005227 -0.537528 -0.956282 0.626347 0.359800 -0.434920 0.887252 -1.733932 -0.275407 0.783830 -0.213242 -1.313241 -0.428327 0.609813 -1.336264 -1.287197 1.169711 0.655327 0.246298 -1.208934 1.853716 -1.281043 0.524572 0.427553 -1.056054 0.587895 -1.791531 -1.736710 -0.770965 -0.472833 0.478228 0.676145 0.732476 -0.202013 -2.094451 0.332588 0.087212 -1.635383 1.549176 -0.820486 -2.143746 2.507340 0.550601 -0.512672 0.259107 0.328475 1.630627 -0.127055 0.357990 2.264371 0.593185
300英雄 -0.689624 -0.510636 -0.555152 2.168785 1.315666 1.125746 0.367154 1.420364 -1.485466 0.233256 1.487687 -2.368521 -1.603634 -0.396189 0.082643 -0.216018 -1.262204 -2.394627 -0.865054 -1.293613 0.245781 -1.225413 1.703576 -0.518645 -1.735935 -0.461170 0.203196 0.265094 0.421267 0.752835 0.972146 0.246783 -0.569795 0.375142 -1.297219 -1.260214 -1.481791 -1.389778 -1.418929 -1.380996 -1.134778 -0.573744 -0.746471 0.277714 -0.576567 1.041383 0.020180 -0.929937 0.404266 -0.317617 -0.507155 1.416872 -1.220641 -0.812420 0.318579 -0.348656 1.097783 0.805166 0.045388 0.962402 -0.775911 1.805913 1.728814 -0.411391
坦克世界盒子 0.906143 -1.956657 -1.249807 0.454391 0.862254 1.226927 -0.052904 2.035194 -0.715339 -0.048344 0.987034 -2.683350 1.041974 -1.196113 -2.793061 0.026848 -0.136014 2.447263 -0.815424 0.206475 -0.979042 -0.309992 0.730618 0.333626 -1.986989 -1.307654 1.316301 -0.430455 -0.474217 1.243603 2.461160 0.458827 -1.238183 1.643744 -0.443087 0.781246 0.079445 -3.110412 0.765101 0.203486 0.535339 -0.896439 -0.609829 1.104269 -2.191261 -0.911857 0.733839 -0.380589 3.194817 0.332220 0.615036 -0.860280 -0.354198 -0.244922 2.695514 0.301098 0.186040 -2.251692 -0.273932 0.312603 -0.176160 0.397009 2.296576 0.493867
问道 0.627702 -0.912583 2.967941 1.564486 0.556963 -0.915130 0.488605 1.325940 -0.664729 -1.109450 -0.384956 0.726318 0.263304 0.390411 -2.330497 -0.402219 1.273920 0.184936 -0.347712 0.152240 0.140324 -1.843915 -1.571341 0.835443 1.418684 -1.868096 2.001793 -0.607863 0.351267 -0.435999 0.368276 1.085053 -1.031090 0.997591 -2.006386 1.343993 -0.460363 -1.078923 -0.789472 -1.053440 -1.558597 -0.150111 -0.370672 1.066818 1.658161 -0.278035 0.135409 0.173850 -0.462825 -0.574841 -0.347325 -1.572828 0.156818 -1.042517 0.391082 -0.147870 -0.600445 -0.612584 0.519286 -1.324117 -0.916153 1.780783 -0.508565 -0.027532
红警2 1.129417 0.892789 1.045934 1.843731 0.101042 0.995364 0.074489 -1.310283 1.099882 1.405971 -1.103809 -1.399909 -1.063422 1.299754 0.090957 -0.514575 -0.584814 0.684823 1.111185 -0.558351 -1.095207 2.347551 1.420509 -1.204427 1.459668 -2.201655 1.289295 0.215885 -1.519895 0.289923 3.034307 -1.501707 -2.322204 2.663759 -1.075732 -1.152369 0.643068 0.085251 0.322622 0.845183 1.432421 -0.060069 -1.033461 0.520144 0.215908 -0.678452 -0.806499 -0.498847 -0.172011 -0.315003 -1.270668 1.134522 -0.619103 1.423821 0.958770 -0.226637 0.039588 -0.703672 -0.572151 1.223022 -1.540797 -0.376140 2.094090 0.827595
暴风影音STORM 0.541017 1.069705 1.818841 0.824307 -2.156072 -1.216682 0.156985 0.241716 0.856595 0.032419 -0.496385 -1.808804 -0.272231 -1.451494 -0.392905 1.266587 -0.439768 0.219442 -1.056763 0.169295 0.717828 -1.515124 0.713438 0.052178 -0.276682 -0.850587 1.405208 -0.082462 1.037041 0.732788 2.927810 -0.130925 1.299452 0.063818 -0.422960 -0.835501 -1.401566 -0.657022 0.603597 -1.904358 -0.371048 0.417637 -1.634490 1.376175 -1.035386 -1.520947 1.855523 1.333465 -0.856909 -0.461377 -1.080995 -0.170932 1.054195 -1.551607 1.065345 -1.225061 0.596079 -1.493268 -0.065108 1.853092 -1.350450 -0.250798 0.833276 1.388254
优酷客户端 -0.503137 0.573960 0.400190 -1.364098 -0.631077 0.104241 1.457351 -1.017170 -0.702215 1.214330 -0.578732 -1.181540 0.897918 1.253652 -0.822526 -0.916470 0.294147 0.471586 -0.899831 -0.308550 -0.097908 -1.029462 -0.845436 0.832164 -0.837769 0.369681 0.083551 -0.898736 0.288291 0.509152 1.329111 -0.011893 -1.830411 -1.904421 -0.396438 0.408142 -1.943887 -0.907103 -1.819099 -1.539460 2.255467 1.060026 0.124558 0.181678 -1.664190 -1.066132 -0.917186 0.723876 -0.114951 0.289138 -1.305467 0.458778 0.300620 -1.599942 1.783284 0.497618 -0.126535 -0.197714 1.173269 1.066436 -2.672737 0.245448 0.811568 2.316546
DNF盒子 2.023654 -0.662962 -1.672275 1.403514 -0.133486 -0.739730 -0.073299 1.008355 -0.278590 1.639227 0.448885 -1.340843 0.950448 1.565259 0.162739 0.880683 0.961608 -0.320117 -1.662253 -1.089393 2.208056 -1.992269 0.692218 2.852887 3.388067 -2.766444 -0.557653 -0.214289 -0.045457 0.102537 1.552325 -1.085359 1.128642 -0.073947 -0.139891 -0.734296 -1.328591 -4.271922 -0.392876 -2.620895 2.505620 -1.004745 -1.465227 -2.094105 -0.878194 2.466072 0.425120 -0.247881 -0.758652 1.662583 1.535560 0.951914 -0.873437 0.641066 -1.545021 0.443144 1.651360 -0.733178 -0.195184 -0.382080 -1.535997 -0.968795 0.074134 -0.429748
求生之路2牺牲 0.350192 -0.720140 0.689180 1.432685 -1.254746 -0.246810 1.226655 -0.989889 -0.014239 -0.462794 1.062158 0.233484 0.427414 -0.147309 -1.341386 -0.905737 -0.925452 -0.359537 -0.661134 -0.967458 -0.585484 0.384017 -0.578709 -0.819384 0.623593 -2.276525 0.630867 2.917978 0.623165 -0.296107 1.215000 -0.597179 -3.013070 -0.662992 0.105718 0.654975 0.338543 -0.995070 0.095334 1.658381 0.349040 1.028014 -2.163936 0.279782 1.152171 -0.176732 0.185407 -1.029229 -0.040185 -0.376260 -0.707949 1.131754 -1.589958 -0.973490 0.683009 0.690757 -0.492795 0.658799 -0.608046 0.012812 -0.806016 -0.683841 2.652403 -0.644984
黄金岛 1.905855 -1.912725 0.932517 2.052868 -1.264324 -0.948387 2.113901 0.496428 0.291337 0.404412 1.368552 0.683174 0.395083 -0.681424 0.342675 -1.650944 0.041488 2.303175 2.330125 -0.695124 0.609229 1.449692 -1.172045 -0.937101 -1.052297 -2.597554 1.770878 0.582896 0.703762 0.283216 2.550236 0.899714 1.272300 1.161278 0.698529 -0.280847 -0.351370 -2.085859 -0.685682 -0.231816 2.201828 -0.558274 0.645608 0.505703 -0.538366 -1.879585 -0.709144 0.987356 -0.561268 -1.985463 -0.757177 -0.679479 0.491998 -0.105352 -0.273747 -2.045533 -0.591573 -1.710084 1.407764 2.722120 -2.084528 -0.488248 -0.019429 1.369089
天龙八部 1.581443 -0.079224 0.406094 0.110017 0.850489 0.868487 -0.876383 0.245701 0.595989 1.046146 1.254461 0.016099 -1.570517 1.594396 -2.339786 0.020509 1.392309 1.801652 -0.643997 0.569149 -0.174518 -0.926514 0.631996 -0.478937 -0.480954 0.502101 1.252720 -2.050840 -0.401507 0.009979 0.607153 0.713905 0.447672 1.234016 -0.734337 -1.403193 -1.488636 -0.479740 0.185318 -2.296818 1.560890 -1.007984 2.132733 0.506038 0.314375 0.162265 1.168204 -0.414618 -1.394483 -1.723593 -0.682846 -1.999830 -0.516305 0.252335 0.373160 -0.739343 0.153055 -1.107138 -0.375467 2.007983 -0.144371 0.857437 -0.702145 2.100786
魔域 1.849348 -1.529613 -0.232389 0.731090 -2.502723 -0.198282 1.211560 -0.378277 1.304446 1.751735 -0.820077 -0.237635 -0.553319 1.118358 -1.524661 0.294164 1.599281 1.676095 0.028440 1.335106 -0.788056 -0.149872 -0.829461 1.018350 0.209470 -2.962119 0.066697 -0.401593 -1.067835 0.206960 1.901041 0.723845 -1.074711 0.934701 0.797714 3.380125 0.935874 -0.089146 0.234485 -1.645589 0.655459 -1.549676 -0.964676 0.560221 0.672295 0.177640 0.713332 -1.547924 -0.736704 -0.088901 -0.550261 -1.907558 1.180533 -0.448092 0.268226 -0.145238 -0.772543 -1.209939 -0.171626 1.365965 -0.943073 -1.169953 -0.284235 1.102189
波克城市 0.880005 0.454462 0.593468 1.857129 -0.124729 -1.787319 1.106056 0.844968 -1.039048 0.399117 1.305686 0.221771 0.384506 0.752703 -0.726236 -0.034244 -0.161522 2.616817 0.035731 -0.724790 2.249444 -2.422221 -1.385812 -1.583275 -1.729588 -2.703931 1.858242 0.642505 -2.063806 0.858481 0.704180 -0.529495 0.222515 -0.647027 -1.319454 0.779614 0.033893 -0.429374 -0.164808 -2.961234 1.552022 -0.354744 -1.297649 1.022949 1.897116 0.169924 1.269123 -0.169758 0.251543 -0.145665 -1.273649 -1.175857 -0.301509 1.889929 1.018117 -1.292244 -2.896543 -3.040092 -0.512244 2.162912 -1.006309 -0.029949 1.965721 0.011690
求生之路 1.151272 -0.421319 0.639933 0.793667 0.686760 0.805938 1.108074 -1.751273 0.802666 0.138617 2.825308 0.745053 -1.796401 -0.588693 -1.724738 -0.242885 -2.098233 -0.316837 0.417402 -0.700793 -1.725916 -0.804123 -0.245558 -0.941899 0.068651 -1.206004 0.934780 1.548434 0.502649 -1.181915 2.401644 -1.432317 -2.980033 0.810920 0.822893 0.453317 -0.150859 -1.208888 -0.837717 0.304097 -0.756678 1.455582 -1.059311 1.006377 0.469325 0.784547 1.569324 -0.777887 -1.302359 -2.332876 -1.439772 0.720477 -1.166855 0.957376 -0.035545 0.227229 -0.232154 -1.657516 -0.217898 0.125412 -1.064969 -1.665601 2.039679 0.616571
神武2 -0.035453 -1.270979 1.269340 2.222969 -2.122032 0.226864 0.316519 0.967562 -0.444938 -0.109699 -1.359377 -1.584751 0.127338 0.797511 -1.206945 -1.234402 1.713199 -0.863243 -0.479277 1.007062 0.463387 0.485126 1.799322 0.062617 0.225970 -0.745140 1.880487 0.033140 -0.869165 1.411758 1.066083 1.210628 0.383851 -0.414267 -1.183231 -0.493166 -1.304569 -0.143433 0.381701 1.093545 1.831929 -0.520963 -0.918434 -0.392620 1.215881 0.107516 -0.310745 -0.113834 2.003372 -0.335527 0.329516 -0.923378 1.307225 -0.861503 1.220968 -0.063907 0.416431 2.271521 -0.193318 0.897920 -1.880141 2.052627 0.441755 0.489159
炫舞时代 -0.513721 0.020564 1.041306 0.696577 -0.079514 1.046800 1.361230 1.426873 0.070671 1.901783 -0.364032 -0.588532 -1.058300 1.923649 0.734158 0.918155 -1.104548 0.889245 1.014128 -0.622803 0.400541 -1.891990 1.657379 0.421820 -0.288673 -2.383824 1.348322 1.311284 -1.156819 0.801833 -0.006849 2.115434 0.117538 0.111733 -0.533510 1.063815 -0.108822 0.262509 -1.651224 -0.314465 -0.229688 -0.170408 0.460351 1.922795 -2.331105 0.446610 1.049606 0.719670 0.796770 -0.654190 0.489507 -1.093266 1.074930 -0.573288 -0.251288 -0.805391 0.890243 -0.527746 0.972829 -0.480657 -1.329176 1.695734 1.156572 3.128062
新大话西游2 1.257340 -0.116780 0.530178 2.472189 0.042999 -2.207193 2.819528 0.821888 0.272687 -0.295140 0.268111 -0.973219 -1.352130 1.564031 -1.727941 0.002090 0.704075 0.314590 1.925079 0.126973 0.575576 0.514347 -0.904482 -1.508214 -0.951709 -1.516667 -0.213487 -1.796184 -1.827536 1.792932 1.665025 1.360613 -1.506524 1.227051 -1.298149 0.958745 -1.621500 -0.991313 -0.546855 -0.910296 0.469610 1.138558 -2.145804 1.442602 0.567736 0.434420 -0.655749 0.041457 0.638247 -2.872296 0.581821 1.328246 0.465214 -1.416841 1.121153 -1.694052 -1.407746 -1.312245 -0.246543 1.795064 -0.784352 0.337442 0.732322 1.198367
PPTV影视 0.958635 2.325944 1.448572 0.402415 -0.595585 -1.004624 1.184519 2.294711 1.578609 1.985458 -0.532485 -0.735547 -1.018983 0.494639 -1.723090 0.973971 0.765381 2.510072 -1.069664 -0.826076 0.181442 0.468344 0.014647 -0.426559 -0.568161 -0.316432 -0.004220 0.393179 -1.024371 1.264978 1.285444 0.764707 0.677283 -0.946557 -1.666366 -0.724363 -0.368532 -1.153189 -0.382411 -0.399171 -0.425823 -1.164234 -1.248983 -1.084161 0.258736 -0.434558 -0.482586 -1.204289 -1.681614 0.035911 0.083427 -0.853875 -2.185632 -0.293585 2.548873 0.868207 -1.723878 0.117877 -1.265050 0.308662 -1.018726 0.661927 2.340652 0.674749
CS1.5中文版 2.898431 1.797329 0.066508 1.060835 0.133389 0.917281 1.647112 -1.560092 -0.246261 0.596810 0.881008 0.494906 -0.681796 0.602711 0.297881 -1.187032 -1.010643 1.721520 -0.203789 -0.547217 -0.627078 0.541430 0.984195 -0.698208 -0.111396 -2.241371 2.109510 1.010625 -0.308593 0.082920 2.360097 0.056537 -3.088260 1.743713 -0.938457 -1.709032 -0.608295 -0.707611 0.582351 -0.241124 -0.481668 0.585345 -2.218046 -0.355762 2.294940 -0.600506 1.284714 1.013270 0.681548 -2.090729 -0.506184 -0.988301 -0.097080 0.253616 0.859523 1.457516 -0.791075 0.740253 1.227234 -0.544607 -1.666720 0.375957 0.778452 0.429335
刀锋铁骑 1.885124 -0.721371 0.785021 1.382775 0.518727 1.443529 1.114451 -0.936210 -0.115679 -0.166273 0.919572 0.795566 -0.299275 0.977934 -1.828172 -2.914851 0.877264 -0.540074 -0.738246 0.272176 -0.607754 0.082387 1.339576 -1.606442 -0.646040 -0.847341 0.154333 -0.043555 -0.107663 0.458008 0.090001 0.995847 -0.281847 1.578416 0.220719 1.405504 0.329147 0.569563 0.391730 -1.934911 -0.405283 -0.660500 -0.105347 1.138329 -1.595290 0.998538 -0.301496 -0.960673 2.128026 0.905898 -0.686902 1.481019 0.209621 -2.383322 0.797768 0.883051 1.780172 -0.012815 1.007590 0.269583 -0.249220 -1.236325 -0.098120 0.572333
迅雷 0.782339 0.165759 0.993845 2.196725 -0.356548 -0.390582 1.089750 1.741319 -1.085420 2.175357 1.541890 -2.539639 0.833169 -0.966588 -0.687934 -1.185816 1.293264 2.215756 -1.510177 -0.106447 0.181838 0.854622 1.759019 -0.792579 -2.722952 -1.727328 0.225223 -0.147588 -0.015251 1.869182 0.830133 1.352467 0.158722 -0.588022 -0.590242 -1.812124 0.056027 -0.846620 0.803855 -1.906274 3.451907 1.367497 -1.517275 0.359371 -1.385074 1.269967 -0.970929 -0.642627 -0.984476 -0.553954 -2.245727 -0.814778 0.294424 0.538375 1.857813 -1.485222 1.175267 -0.508503 -0.137244 2.705815 -1.277235 -0.815614 1.304454 0.356043
阿里旺旺 3.600420 -1.206360 -0.021777 2.284859 0.524505 -1.838839 -0.169783 3.558133 0.991048 1.182298 1.458067 0.360049 0.065640 -1.446160 -2.647750 2.117348 0.297313 1.893699 -0.854031 1.092831 -0.476523 0.110674 1.490945 -1.250200 -1.257827 -2.661008 1.190823 -0.045290 0.608596 1.323992 0.847902 0.222807 2.288612 -0.230544 -1.117257 -1.966513 -0.762014 -0.296526 -0.126218 0.696286 -0.928292 1.369365 -0.019195 0.536367 -0.205771 1.768836 1.179841 -1.237567 0.103040 -1.779701 0.503477 0.368119 0.329298 -1.388634 0.148144 -1.220463 -0.649343 -1.267311 -0.320799 1.831625 -1.590673 1.274271 2.166018 -0.251374
流星蝴蝶剑 0.685303 -0.319855 -0.192036 0.260583 -0.069677 1.559739 1.798542 -1.792002 -1.074106 0.521975 0.590586 0.320746 -1.166985 0.910306 -0.338203 -0.311948 1.442995 -0.606643 0.412002 -0.615808 -0.148802 0.326434 0.990089 -2.291281 -0.093713 -2.039421 1.094352 2.002784 -0.788573 -0.258571 2.603741 -0.268454 -2.086854 1.652380 -1.774498 -0.320808 -0.169713 0.909052 0.096122 -0.646991 -0.008157 -0.196488 -0.681494 -1.184778 1.680717 -0.550488 1.876976 0.009099 -1.105477 -2.007974 0.057703 -0.394530 -0.711469 0.335648 0.593544 1.461441 -0.818556 -0.780919 0.855452 -1.724575 -1.846765 0.314817 1.628176 1.186362
火狐浏览器 0.657494 0.430368 -0.716510 0.417374 0.345873 1.175391 1.374291 -0.991579 2.180113 2.652029 2.453142 -0.497034 0.120081 -0.902108 -0.520678 0.592793 0.672502 0.335303 -0.941545 -1.038738 0.691028 0.365566 0.539311 0.203647 -1.042710 -2.285367 -0.402931 -0.966145 -1.066942 0.470615 1.122267 0.174391 1.469667 -0.017299 0.189904 -0.844603 0.451231 -1.531315 -0.277371 1.958022 1.250333 -0.316902 0.670814 0.983820 0.487978 1.037461 -0.395639 -0.508647 -0.078838 -0.311542 -0.540714 -1.149389 0.346835 -0.087940 0.068984 -0.023551 -0.863893 -0.556920 1.337242 1.223458 -0.528173 -0.411554 2.748748 2.014511
虐杀原形 -0.326386 -0.414303 -0.503074 -0.773908 -1.024110 -0.285323 -0.190287 -1.776714 0.410000 -0.343474 -0.616241 0.460333 -1.371831 -0.293815 -0.622302 0.079317 0.117280 0.469468 1.311730 -1.063732 -1.725418 -1.924375 1.112634 -1.981909 0.748534 0.470829 0.765188 2.351275 -0.237668 0.202449 1.191017 0.414267 -1.746546 1.291604 -0.318301 -0.505615 -0.810088 0.623242 -0.024998 -0.223496 0.339757 0.031221 -1.196285 -0.590650 1.515323 0.088219 1.055661 -1.160227 0.040644 -1.539654 0.667309 -0.355488 -1.297732 0.825923 0.047249 1.456620 0.347228 -1.157630 1.092234 0.707123 -1.647730 0.568891 1.432460 -0.807737
血战上海滩 -0.451218 -0.252538 -0.084065 -0.399836 -0.048661 -0.049664 1.737841 -1.191842 -0.587691 -0.500185 1.070341 -0.262001 -0.586915 -1.046127 0.665276 -0.471690 0.033496 0.848546 0.933258 0.436646 -1.666236 0.124680 1.502983 -0.677952 0.917853 -2.029097 1.062916 1.922996 -1.051438 0.628117 2.004536 0.471115 -1.744087 0.527380 -2.327668 -1.087328 -0.682739 1.086340 -0.148940 -1.447690 0.016796 0.246892 -1.293718 0.556124 2.340192 -1.007459 1.491486 -0.509823 -1.106997 -1.242884 -0.106270 -0.980928 0.448229 -0.167726 1.158881 1.478554 -0.308296 -2.379030 1.128357 -0.981329 -2.134790 0.758896 0.365310 1.066558
龙之谷 0.498024 0.124035 0.357212 0.689069 -0.278665 0.534477 1.520697 0.625313 0.779753 0.304477 0.957140 -1.134433 -0.798862 0.931633 -1.392233 -1.391367 1.819469 -1.660399 -1.001314 -0.812052 -1.316348 -0.196782 0.448112 -0.893497 -0.148064 -1.284181 2.344337 -0.617632 -2.648163 2.487158 0.130690 0.350311 -0.497989 -1.646037 0.856755 1.099288 -0.595773 -1.461176 -0.986387 -1.543036 0.155744 -1.342379 -1.687849 1.604623 0.092137 1.853110 -0.619766 -2.601107 0.875093 -1.249846 -1.373763 -1.363407 -1.110171 -1.222938 0.173636 -0.334781 -0.847698 -1.135954 -0.306261 0.288857 -0.468921 0.918338 -0.234972 -0.677477
我的世界 -1.566755 0.600593 -0.017823 -0.332536 -0.004309 1.279891 0.357759 -1.387117 -1.108924 0.924788 0.735844 -1.161586 -1.351707 0.047492 -0.825759 -0.859860 0.337543 0.506275 -0.931219 -0.364337 -1.840508 -1.584262 1.317194 -0.757455 0.172721 -1.168633 0.403706 1.201206 -1.177591 -0.022364 0.608085 0.636827 -2.884473 0.769079 -1.893021 1.602811 0.353253 0.597690 -0.365762 0.399852 0.135085 0.846946 -0.436111 0.022986 1.253077 0.890668 -0.227912 -1.136794 0.446581 -1.173015 -0.042980 0.296894 -1.878832 1.855706 0.860557 1.552975 -0.474398 0.627923 0.423704 0.281510 0.486780 -1.004997 0.716339 1.234062
征途 -0.289378 -2.481960 -0.313560 -0.305493 -0.763307 -1.845791 1.324893 1.861031 0.887847 1.961585 2.287471 -1.111290 -1.010774 2.949172 -0.763696 -1.327970 -2.376867 2.008607 -0.785961 0.868392 -1.821866 0.545081 -1.851648 1.113289 1.156486 -1.503490 2.112992 0.198158 -1.246753 2.673312 0.555352 -0.150506 1.628951 0.738855 -1.980833 0.831187 -1.195898 0.509950 0.693726 -1.364424 0.354351 0.221405 -1.050080 3.373417 2.154164 0.327404 0.014062 -0.578009 0.055096 -1.221253 0.054007 -0.242942 -0.257989 -1.560359 0.467801 -1.979237 -1.352500 -1.886111 -1.804789 1.007333 -1.231293 -0.144899 0.956419 0.186178
亲朋棋牌 -0.116048 0.022237 -0.807774 1.330883 0.226569 -0.717494 2.493264 0.905689 2.086178 -0.031860 -0.309519 -1.241712 -1.243555 -1.363713 0.515305 1.040160 -1.090346 1.516067 -0.758289 -1.045803 0.413285 -0.814355 -1.435986 0.326022 1.458754 -1.445722 0.061626 0.238165 -1.924175 0.215780 -0.495184 0.181145 1.406785 2.203301 0.064332 0.224513 1.694359 0.088296 -0.218702 -0.096085 -0.511890 -1.196320 0.978838 1.899277 -0.240839 -0.722837 0.005439 -0.141485 -1.372939 1.221990 -0.685037 -0.071548 -0.925404 -0.112897 0.815635 -1.204824 -1.810304 -1.950340 -0.876892 2.043645 -0.734381 1.162653 1.084952 1.346759
NBA2K16(WIN7X64) 1.121941 -0.236220 0.749795 -0.633049 -0.148255 2.770292 0.909263 0.243083 0.200182 -0.923364 1.348780 -0.687654 -0.290051 -1.451413 -2.046422 -3.156135 -0.425710 1.171874 -1.199766 -0.471465 0.389359 1.175494 -1.283177 -2.070571 1.056589 0.432356 1.376771 -0.790657 -0.131042 0.424581 0.504283 1.757648 -0.139203 -0.007078 0.885089 -0.692215 -1.302041 -0.225102 -0.665936 0.086596 1.220568 -0.540226 -1.362360 -1.012320 2.253419 0.172329 -0.104566 -1.629349 -0.338962 0.803092 -1.037477 -0.127813 -0.114886 -0.387253 0.362418 0.494743 0.047610 -0.424241 0.343586 0.558976 -0.204955 0.184381 0.889680 1.191797
虐杀原形2 0.040343 -0.791664 -0.198767 -0.929723 -0.644562 0.061919 -0.117453 -1.976197 0.479002 -0.480908 -0.256573 0.252638 -1.184629 -0.127714 -0.265425 -0.022436 -0.605543 1.000656 1.263214 -0.891588 -1.251634 -1.286366 1.190477 -2.240784 0.804497 0.492162 0.544586 2.412141 0.003076 0.002727 0.864782 0.456279 -1.800231 1.009900 -0.242358 -0.500977 -1.286004 0.681277 -0.011467 -0.318307 0.207211 -0.101904 -1.332480 -0.456881 1.399422 -0.073028 1.064069 -1.540432 -0.232388 -0.738546 1.071277 -0.408767 -1.473462 0.405970 -0.090655 1.596528 0.348224 -0.551085 0.761307 1.068330 -1.009065 0.618944 1.660718 0.180612
神武 0.312764 -1.343502 0.689613 1.665792 -1.651132 0.686084 0.840298 0.489451 -0.430461 -1.045014 -0.443826 -0.659241 0.152247 1.121393 -1.718303 -1.061594 1.855484 -0.873048 -0.072376 0.629986 -0.521628 0.542684 1.997677 0.101334 0.356546 -0.418247 1.447481 -0.276462 -0.517562 1.621899 0.553007 1.164938 0.405844 0.389998 -1.284249 -0.474611 -1.113602 0.084676 0.472246 0.221939 0.960069 -1.002153 -0.353697 0.052114 0.967129 0.592635 -0.370298 -1.106188 2.059027 -1.249277 -0.179029 -0.749488 1.189225 -1.389230 1.020634 -0.493637 0.475011 1.628455 0.071602 1.362628 -2.138731 2.337672 -0.803250 0.707914
VS竞技游戏平台 0.784112 1.449715 0.394118 2.877924 -1.542814 0.130932 2.929891 1.125816 0.677589 1.024189 1.427355 -0.032538 -0.022615 -2.549948 -1.161707 -2.073250 1.833412 -1.244435 0.814912 -0.102738 1.209309 -1.727389 1.673347 -1.039126 0.004174 -0.242311 -0.260900 0.704029 0.709884 -0.705581 2.483772 1.228741 -0.256776 2.049177 0.543810 -2.856597 -2.290762 -2.741137 -2.882878 1.006943 1.589324 0.194039 0.317258 1.027464 0.064255 -0.853368 0.926427 0.591543 -0.425354 -0.576892 -0.426312 -1.283813 -0.026518 -0.641577 2.028007 0.003797 -1.523538 -1.079769 -1.172685 -0.537644 -0.829738 2.422310 1.765347 2.017799
战地之王 1.172359 -0.028424 -0.305268 -0.511444 0.881082 -0.039330 0.464367 0.299425 1.205433 -0.588282 -0.221847 0.622470 -0.896456 1.233545 -1.974603 -0.278270 -1.984402 1.880370 0.405901 0.560568 -1.104954 -0.985526 2.026064 -0.800550 -0.878359 -1.004619 1.357059 0.715066 -1.344832 0.707938 -0.800671 -0.435942 -2.208419 1.062024 -0.976575 0.457241 -0.803910 -0.276141 0.231969 -2.917428 0.030739 -1.164926 -2.118533 0.356736 0.752414 0.481312 0.399047 -3.123033 0.560936 0.656229 -0.620730 1.102510 -0.296322 -1.218016 1.502651 -0.280996 1.608653 0.190152 -0.397678 1.103706 -1.137557 -1.715967 -0.457141 -1.688510
搜狐影音 -0.577523 1.670836 0.583198 0.957726 -0.404823 0.005570 1.773175 -0.193303 0.191250 2.826650 0.472030 -0.578382 -1.823122 2.256958 0.640350 1.196375 -2.778323 0.861354 1.037959 0.469111 0.594208 -1.448788 0.181403 -0.607701 0.556844 -0.742607 -0.575570 0.172693 -0.388199 1.073977 -0.114241 1.274496 -0.137324 -1.126364 -1.846081 -1.185323 -2.392544 1.355258 -1.166333 -1.065347 1.379812 -0.607817 -3.865093 1.127195 0.178315 0.292366 0.466483 0.614497 -1.161913 -1.195421 -0.750937 0.021973 0.376966 1.471915 1.062030 -1.121310 -0.822638 0.789640 -0.265553 1.954261 -2.158750 -1.232909 1.550625 0.271598
斗战神 0.346608 -1.355687 2.208523 0.023018 -1.621894 -0.920463 1.204945 0.742935 0.693775 0.501913 2.108108 -1.211171 -2.357398 -0.042484 -1.478296 -1.096991 -0.133824 0.330793 -2.091465 1.007902 -0.125591 -1.160715 2.322088 -0.262787 -0.903435 0.289204 -0.167513 -0.401803 -1.491342 0.657228 -0.455868 0.612982 -1.205797 -0.373743 1.048165 0.511527 0.397550 -0.903499 -1.149553 -2.542089 -0.278336 -0.396334 -0.964940 -0.581006 0.415941 0.760973 -0.021906 -1.300712 -0.380279 -0.732921 1.140394 -0.263057 0.352193 -1.203520 0.773797 0.227743 1.361837 -0.168189 -1.213258 -0.676210 -1.648011 0.226167 0.585520 1.617973
新寻仙 2.085113 -0.798064 0.825606 1.891268 0.266875 -1.487244 0.550866 0.318495 -0.068830 0.696093 0.699729 -0.050872 -1.627388 2.406863 0.198416 -0.149633 0.517300 1.417301 -0.680003 -0.048656 -0.143777 -0.410771 0.983491 -0.572893 -0.479891 -0.774941 1.288044 1.175173 -1.638008 -0.190970 1.282564 -0.338855 0.531280 0.854801 -0.437661 -0.859654 0.414664 1.023019 -2.030318 -1.834719 -0.027020 -1.859375 1.164273 0.401176 0.489850 -0.810222 -1.543397 -0.770252 0.470044 -0.335334 1.966169 0.327134 0.461182 -2.214175 -0.806365 0.209833 -0.327271 -0.212614 0.155733 1.536496 -1.204597 1.628352 0.712256 -0.530745
英雄联盟体验服 -1.518399 -0.835361 0.191400 -0.340147 0.628962 0.520791 1.445706 -1.198943 1.130010 -0.123258 0.968176 1.007709 -1.570159 -0.086120 -0.311112 -1.758057 -0.640220 0.122704 1.258697 0.122932 0.094760 -0.653728 -0.408798 -0.473448 0.534646 0.633242 -0.214832 0.567903 -1.520587 -0.381029 1.139629 -0.435360 -1.412370 2.411128 -1.879039 0.912557 -0.552402 -0.554972 -1.063712 -1.913816 -1.450748 0.932294 -1.296709 -1.747947 -1.620727 -2.200438 -0.833333 -0.703657 0.253480 0.633835 0.885871 0.950894 0.077189 0.594715 -0.285860 0.198313 -0.257710 0.506292 -1.368891 0.096940 1.030160 0.234253 1.087853 1.049902
疾风之刃 -0.356010 -0.187544 1.173960 0.854005 -0.911111 1.458733 0.405072 -0.886934 0.732265 -0.535377 0.669430 0.683211 -1.152666 2.502340 -1.077365 0.385404 0.323459 -1.746877 -2.378963 0.037428 0.435115 -1.208723 0.382828 -0.338003 -1.173796 0.355076 0.201683 -0.252130 -0.831671 0.683341 0.658200 -0.740596 -1.705368 0.276364 0.209493 -0.213539 -1.137943 -0.482941 -1.235400 -0.667531 -1.765910 -1.564827 -0.700167 -0.266807 -0.399702 0.972154 0.100681 -2.817580 1.098062 0.095147 0.540883 0.718320 0.900109 -0.291532 1.813461 -0.791934 -1.557353 -0.124211 -0.272904 0.884273 -1.043915 0.527302 0.339876 0.723495
JJ比赛大厅 0.779423 0.890700 -1.067854 0.703093 0.125889 -2.766973 2.242450 -0.175595 -0.238004 1.982962 -0.853615 -0.684626 -1.307894 -2.007229 -1.422089 0.269486 -1.171570 2.472953 3.746357 -2.121081 0.377874 0.823650 0.460246 -1.017858 0.590996 -4.038215 -0.341929 0.131779 0.668735 1.904749 -0.372522 -0.004149 0.231068 0.269423 -1.612505 1.697043 -0.677570 -1.053231 -1.557241 -1.612045 0.075637 1.640084 0.956474 3.034246 -0.084094 -0.001020 -2.055061 -0.153333 -0.459215 1.148103 -0.778064 -0.016604 -1.950990 -0.521070 1.214449 0.083440 -0.582453 -1.923013 2.026820 1.099093 -2.141034 0.552601 1.128815 -2.468379
诛仙3 0.702810 -1.155338 1.299274 2.676502 0.130064 2.335775 0.972944 0.084572 0.286000 1.531932 0.732772 -0.898179 -0.526645 0.561279 -1.572363 0.417240 0.300218 0.027998 -2.805157 -0.812195 -0.237059 1.613346 0.775780 0.069520 1.291941 -0.475062 1.773263 0.631768 0.011818 -0.512158 0.400744 1.108004 -2.263627 1.475136 -0.542879 -0.119365 0.195526 1.072433 -0.780059 -1.750941 -0.418301 -0.685485 1.643940 0.299876 0.211411 1.794323 0.615314 -1.643101 0.436746 0.063551 -0.614204 -2.309326 0.026453 -2.108244 1.348867 -0.951936 -0.227803 0.775463 0.498203 0.793958 -2.554904 0.391793 0.827088 1.387480
自由篮球 0.943542 1.904840 0.093140 0.092479 0.437678 3.213844 0.785857 -0.438573 1.011052 -0.687497 -0.806578 -0.896586 -0.723983 -0.159355 -1.506259 -2.255743 -2.039404 0.483152 -0.687776 0.060820 -0.070113 0.601072 -1.324663 -0.952172 0.525033 -0.546662 1.440067 -1.267486 -0.870080 0.397996 -0.242740 1.097924 -0.642329 0.360481 -0.703977 0.507944 -0.762746 -2.201626 0.466921 -2.364665 -0.284254 1.101932 -1.224191 0.777948 -0.166276 -0.422059 1.115300 -1.732944 0.661023 -0.112998 -1.015952 -0.318569 -0.641203 0.236105 0.498804 -1.872433 0.176198 2.270161 -0.226436 0.760472 -0.862912 0.047349 0.759539 -0.197223
轩辕传奇2 -0.056544 -1.319262 -0.001568 3.500792 0.120769 -0.727914 2.058305 -0.162026 -0.413113 1.172954 -0.034408 -0.271063 0.153178 2.107538 -1.145230 0.766528 0.423533 0.677444 -0.113735 0.866109 0.471712 -0.873179 1.912799 -1.092484 0.322190 -1.211900 1.102010 -0.064043 -1.393661 -1.103464 -0.191365 0.039018 -1.420796 0.520220 1.432299 0.922523 -1.289146 0.816538 -1.041948 -2.410684 1.604576 0.516767 -0.187996 1.519390 1.879505 0.336481 -0.460630 -0.567363 1.320350 -0.483317 -0.287262 -1.090281 0.482922 -0.387923 0.241698 -0.264420 2.144190 -1.787603 -0.478479 0.475088 -0.658679 -0.855061 0.263390 0.387407
反恐精英Online2 1.770145 -1.022289 0.110414 -0.041099 1.361355 1.780017 0.362043 -1.254751 2.037419 0.792581 0.160136 0.304812 -0.251894 0.767452 0.135745 -0.860930 -1.605049 -0.531018 0.512608 -0.513015 -1.548905 -1.406891 0.642949 -1.665652 -1.352288 -2.627708 2.085551 0.858900 -0.906578 0.841389 1.352858 -1.451182 -1.821624 0.748584 0.454485 0.672210 -1.759558 -1.043675 -0.586142 -1.598125 -0.366267 -0.207348 -2.865859 -0.045231 1.566900 -0.281707 -0.723560 -0.794581 1.673251 1.046979 1.370347 -0.129411 -1.285016 -1.542352 0.708051 -0.210194 0.630714 1.166463 0.415258 1.062476 1.434930 -0.263177 0.864367 1.453636
实况足球8 0.552849 0.459536 1.710304 1.878896 0.108393 0.958051 1.051010 -0.869733 -0.823247 -0.846881 -0.716328 -0.501729 -0.784243 -2.411944 0.788997 -2.416670 -1.632833 1.299266 0.846942 -0.752989 -0.241505 0.914401 -0.152613 -1.261030 0.429996 -0.652493 1.503157 -0.665834 -1.489200 0.819478 1.477807 1.585828 -2.277780 0.016087 0.800458 -0.069710 -0.137186 -1.115069 -0.728689 -0.419248 -0.010087 -0.151680 -2.595334 -0.444993 1.406178 -1.373141 0.067051 -0.446980 -0.520468 -0.080491 -0.464052 -0.334896 -0.114962 0.927997 2.969269 0.771420 -1.253751 0.036083 0.790712 -0.228338 -2.423922 -0.942960 0.301994 0.560307
天谕 0.092002 -0.923173 1.685963 0.353424 -1.248132 1.212351 0.249487 -0.135902 2.052766 0.904371 -0.628855 -0.579540 -1.031456 0.911736 -2.914677 -0.820412 0.359968 -1.063514 -1.033442 -1.438462 -0.216018 -0.226248 1.928391 0.015888 0.968436 -0.182679 -0.167835 0.352736 0.091070 0.263409 0.356541 0.311126 0.061345 1.116953 -1.373265 1.837896 -0.239508 -1.034314 -2.241465 -2.198736 -0.265685 -1.143792 0.448842 0.764882 -0.767985 0.566594 0.012603 -2.822279 0.454524 -0.311373 -0.505099 -0.555931 -0.229073 -2.259249 0.210747 0.202543 -0.107453 0.849698 0.665881 1.065546 -0.797134 0.937013 1.498664 0.019643
QQ音速 1.912334 0.426407 0.126220 0.099682 -1.605211 0.124889 1.325227 -0.144915 1.560945 -0.216586 0.156773 0.881626 -1.471934 0.133738 0.117519 -1.542872 -1.229189 1.474642 0.380411 -2.282123 0.859474 -0.757323 1.007406 -0.442863 0.069420 -2.312845 2.431798 -0.157372 -1.777571 0.171403 -0.008686 0.015588 -1.819746 -1.464331 -0.405839 0.620068 -0.681089 -1.758064 -0.790389 0.122583 -0.446082 -0.339271 0.879955 0.132430 1.865801 0.933790 1.182678 -2.304708 -0.096448 -0.411402 -0.246413 0.539355 0.895287 -0.348698 -0.561984 0.784121 -1.159984 1.119170 0.635166 1.156169 -1.372172 1.575149 1.572450 1.477228
英雄联盟比赛服 -0.246280 -1.412420 0.213130 0.413104 0.227313 0.419864 1.175844 0.463736 1.638675 -0.041130 0.772197 0.427212 -1.273168 -0.162924 -0.496031 -1.421843 -1.606114 0.456666 -0.100246 -0.394344 -0.834988 0.929837 -0.517071 -0.544574 0.396430 0.310733 0.398072 0.372078 -1.709860 0.139134 1.049003 1.085609 -0.239568 2.344197 -1.655777 1.002064 0.188332 0.055323 -0.398637 0.049543 -1.668074 -0.771549 -1.521735 -1.728746 -0.270161 -1.509777 -1.366546 0.096744 0.367213 -0.010804 1.172935 0.534212 2.165875 -0.038910 -0.001124 -0.554416 -0.982973 1.027732 -0.862202 0.225886 -0.858418 0.413460 1.999889 0.579681
穿越火线体验服 -1.431599 0.021817 -0.235207 0.748702 2.055208 0.578252 -0.063268 0.299795 1.648561 1.907821 0.488874 0.995116 -1.315154 -1.653582 -1.051338 -0.228769 0.694539 0.549989 -0.213340 0.362506 1.109021 -2.187545 0.973328 -1.785315 0.221640 -0.191346 1.265742 1.729747 -2.478974 -0.774025 0.920687 0.327374 -1.872989 2.866175 -1.727179 -0.236633 -0.044750 1.508070 0.994634 -0.079186 -1.802722 0.831519 -1.218109 -2.209187 1.512114 -0.570678 2.841890 -1.012195 1.331130 0.130517 -1.124344 -1.103515 -0.690818 -0.462475 0.729643 -2.327006 -0.045974 0.839484 -0.971634 0.326842 0.894437 -1.709367 0.765864 0.710891
神之浩劫 0.666010 -2.202779 -1.394675 -0.052584 -0.857544 1.063693 1.033151 -1.077700 0.944253 0.547770 -0.025445 -0.842710 -0.507941 1.311944 0.338304 -1.491313 -0.664425 -0.972352 -1.612690 0.078683 -0.872956 -1.215118 1.255782 -1.482471 -1.794258 0.518942 0.598721 2.173665 -1.205628 0.400787 -0.211364 0.577937 -1.409686 -0.497912 0.749069 0.201589 -1.492394 1.607637 -0.304652 -1.279568 -0.448890 -0.996069 -1.034304 -0.547570 -0.732931 1.188168 0.765314 -1.147192 1.468314 0.044247 -0.569682 1.525917 0.751897 -0.643532 -0.084288 0.540419 1.367983 0.072001 -0.728453 1.042926 0.510251 -1.462022 1.031847 1.185419
御龙在天 1.017493 -0.961442 0.541928 0.388302 -0.975903 -0.311314 1.517723 -1.351023 1.505800 0.582586 0.779182 0.935232 -0.542880 1.424979 -1.446713 0.960277 -0.279215 0.199788 0.780671 0.804367 0.226122 0.008831 0.248833 0.783329 0.346682 -1.493467 1.571211 0.135164 0.091126 0.487731 0.006068 1.043420 0.409665 -0.426540 -0.941695 1.043368 -2.435813 0.977891 0.066348 -1.225061 -1.456226 -2.095266 1.197287 0.229163 0.335636 0.391579 -0.198344 -0.685573 -1.014762 -0.912604 -1.779686 0.530784 1.190802 -2.897024 0.542930 -0.412854 1.112314 0.671587 0.477285 0.206288 -1.267423 -0.486109 -0.227818 -0.307032
QT语音 0.050178 -1.038060 1.941412 0.411808 0.775530 0.203438 0.877719 0.123146 1.023644 0.778647 -1.576416 -1.238515 1.764155 1.106667 -0.609937 0.867944 -2.192187 0.474284 -0.808195 0.221859 -0.694255 0.249237 1.077611 -0.662480 -1.232996 0.068241 -0.115213 -0.718999 -0.009897 0.640155 -0.945092 -0.118035 0.096760 -0.538210 0.576382 1.427751 -0.306234 1.704456 0.750912 0.976038 -0.477091 -0.880625 1.978227 -0.891460 -0.970100 -0.880420 0.727845 -1.119274 -0.978152 -0.443884 1.187966 1.575300 -0.309400 -0.268582 -0.254331 -0.222110 0.365009 -0.047981 -0.665291 0.954060 -1.798386 -2.397472 1.670465 -0.157930
QQ三国 0.686570 -1.640308 0.821895 3.073633 -0.896213 0.099147 -0.302098 1.250834 1.403441 -0.156689 1.434713 1.676910 -2.837533 0.178454 0.041332 -0.376290 0.046476 -1.103114 0.674876 0.318312 -0.085707 0.572451 1.688069 -0.299574 0.365296 -1.676462 2.027814 0.119751 -0.780383 0.090144 0.900983 1.081776 0.356483 0.651169 0.051612 -0.008070 -0.651559 -0.088232 -0.577632 -0.762565 -1.231222 -1.482143 -0.496265 0.772378 2.220371 1.128464 0.441659 -1.145775 -0.972677 -0.734871 -0.242018 -0.398673 1.575355 0.594146 -1.481249 -0.861120 0.326825 -0.035248 -1.859504 0.995814 0.201955 0.375768 0.101078 -0.001278
战争雷霆 1.189076 -2.441078 0.747764 0.832863 1.393420 0.970588 0.968913 -1.094989 0.733779 0.401848 -0.140095 0.239092 0.407818 -0.525377 -1.933803 -0.748795 -1.024312 -0.436700 -0.498572 1.361398 -1.300853 -0.482622 2.057078 0.119747 -0.447269 -0.655189 1.074806 0.548181 -0.351543 1.389749 -0.600210 -1.179907 -1.120168 0.480531 -0.937831 0.246859 -0.695321 0.736973 -0.882618 -2.285756 -0.808391 0.304243 -1.670776 0.869780 -0.404298 0.507835 0.279305 -0.559565 2.103543 1.259351 -1.076920 0.816250 -1.566804 -1.773175 2.415058 0.454274 1.238236 -1.499345 0.242057 0.818922 0.386457 -1.018921 1.458897 0.844110
傲游浏览器 0.162096 -0.742603 0.767735 0.563055 -0.891009 -0.333037 1.817397 0.943067 -0.712112 1.877790 1.143439 0.575264 -2.185193 -0.832057 -2.534235 0.454485 -0.176275 1.788303 -1.634369 0.389447 0.909531 -0.949679 -0.649502 1.657906 -0.039525 0.926739 0.146421 0.986967 1.409150 0.288051 1.318851 -0.824650 -1.657498 0.893983 0.908948 -0.167172 0.964089 3.234961 -1.403758 0.377646 -0.696635 -0.369778 -1.805622 -0.162241 0.345281 -1.305533 0.196356 -0.020662 -0.486491 -2.193628 0.400348 -1.248569 -1.064989 1.297331 0.484517 -0.763375 -0.642522 -0.258439 0.467669 0.871663 0.544012 1.115144 0.783926 0.708724
梦三国 2.400536 -0.388350 0.551422 1.681084 -0.379546 0.049333 0.503866 -0.355521 0.700757 -2.530859 -0.539571 -1.587810 -0.965157 1.125414 -0.797151 0.553514 -1.590231 0.143070 0.856785 -0.901975 -1.059622 1.054518 -1.647394 -0.010849 -1.176318 -3.254736 1.024836 1.418936 0.398376 0.825573 0.668038 -0.181139 1.157709 -0.096199 -0.323185 -0.965057 -0.929798 -1.642801 -0.878534 -2.126754 0.480034 -1.730644 0.476924 -0.251395 1.698982 1.831558 0.106638 -0.698816 -0.006822 -0.551838 -0.568048 -0.202369 0.955766 0.531506 0.214444 2.526801 -0.622212 -1.126483 -0.446783 0.361709 -1.557760 0.690383 0.447971 1.159982
CS七龙珠 -0.171222 0.504405 -0.142128 0.090928 0.737254 1.463149 1.260671 -1.738337 0.239195 -1.137339 0.504495 0.446293 -1.584129 1.146553 -0.520532 -1.459227 -0.657439 -0.223043 0.576941 -1.194558 -0.369893 -1.626576 1.450868 -1.903259 1.353634 -1.276335 1.335362 1.095106 -1.061144 -0.621377 1.526925 0.145289 -1.370417 0.556920 -1.453469 0.029187 -0.922680 -0.509760 0.764886 0.340405 0.836639 0.194884 -0.160739 -0.151549 1.846902 -0.753082 1.038156 0.058549 -0.196654 -1.022642 -0.826333 -0.485962 -0.980388 0.588855 -0.416796 2.245151 0.670583 -0.200031 0.551652 -0.906147 -1.790649 0.408943 1.346244 1.430239
CBox -0.466904 0.574720 0.393244 0.735835 0.945820 -1.332131 1.450055 -0.428664 1.312006 1.301085 1.872039 -1.956392 1.170464 0.792814 0.952043 0.453182 -2.560142 2.617529 1.175448 -0.531524 2.272551 -0.711542 -1.046795 0.694106 -1.585462 -1.621546 0.788609 1.116209 -0.502425 0.201629 1.089897 1.183082 -0.046478 0.158165 0.321189 -0.122039 -1.283388 -1.251755 -1.978962 -2.097573 -0.471452 -2.769419 -1.151890 1.386240 0.162602 0.620881 -0.750759 0.453771 -1.073295 0.101726 -0.821476 0.300944 0.307722 -0.911217 1.732147 -0.147546 -0.783914 -1.709565 0.386148 0.713971 -1.158103 -0.118066 2.240152 0.474990
175平台 0.377027 0.545183 -0.718622 2.554757 1.126954 -0.216194 2.394004 -1.051616 1.579479 0.551147 1.080697 -0.460897 -0.482069 -1.724706 1.077933 -0.886176 -1.008342 1.020099 -0.307819 -0.847570 -1.793653 -0.434788 0.099970 0.472497 0.252171 -1.749736 0.573915 0.545294 -0.971629 0.045916 0.207133 2.059559 0.552230 1.543739 -0.848318 -1.055568 -0.611539 -1.895797 0.317870 -1.375413 -0.063016 0.764720 -2.858351 1.445441 1.349391 -0.521007 0.239501 1.369627 0.763639 -1.022550 -0.529934 -0.155591 -0.214615 0.593835 1.393959 -0.495055 0.683371 -0.012700 -0.302495 0.614700 0.698028 -0.776135 -1.087446 0.564901
泡泡堂 0.758468 -0.404321 -0.848803 0.919063 -0.876650 -0.076519 1.253622 0.445291 1.401517 0.665182 0.375981 0.589951 -2.150231 -0.584200 0.423469 -1.700752 -0.521208 1.376314 0.938311 -0.912754 -0.260216 0.181305 1.053558 -1.037202 1.273114 -2.210050 2.292638 0.208949 -2.602785 0.097247 0.898272 -0.379128 -2.525495 -0.427523 -0.994512 -0.251576 -0.453746 -1.343081 -1.731696 -0.332648 0.194937 0.753038 1.759331 0.364516 1.742336 0.612013 1.093140 -1.841867 1.465282 -0.291519 -0.541534 0.505510 0.824113 -0.581770 0.630647 0.585419 -0.972519 0.841215 0.204479 1.182062 -0.983570 1.340614 0.486435 2.950433
神途 0.732494 -0.481180 0.525039 2.887468 -1.772494 -0.860888 2.929729 0.584437 1.391810 2.045127 -0.219201 -1.474414 -1.679702 -0.460208 0.458065 -0.164570 -0.168137 1.096170 0.029051 0.266291 0.299934 0.752743 -0.318203 -1.356850 0.849686 -0.815708 1.425141 1.392676 -0.455144 -0.058233 0.101401 0.707986 -1.596568 0.635132 -0.250500 -0.493551 -1.557654 -0.273130 -1.409361 -3.490540 0.410260 -1.611479 -0.206124 -0.067082 0.163253 -1.132605 -0.538927 -0.631764 -1.661647 -0.288194 -0.429658 -0.681650 -1.062626 0.072235 1.291821 -1.748793 -0.288297 -0.015918 -1.007600 1.992793 -0.084435 -0.761484 -0.854266 -0.546351
迅雷看看 0.427732 1.436773 -1.041479 1.886397 -0.746873 -1.673472 2.242564 1.994106 -0.971882 0.892297 -0.847602 -2.288665 0.437387 -1.366724 0.131366 0.287653 0.035109 1.392392 -0.237415 0.599481 1.138658 -0.054942 0.742853 -1.603035 0.061800 -3.628479 1.461840 1.148905 -0.552818 -0.352628 1.438129 0.269753 0.269950 -0.149648 -0.830791 -0.786829 -1.456267 0.191095 -1.019420 -0.473145 2.086698 0.652642 -1.918424 1.828170 -0.460804 0.647485 -1.031283 -0.611915 0.568505 0.736276 0.229213 1.376501 0.665648 -0.172677 1.398240 0.242405 -1.068605 -0.874617 0.760349 1.457093 -1.068385 0.148244 1.774153 1.237115
千炮街机捕鱼 1.050319 -0.965025 1.329345 0.156653 0.479315 -1.562371 0.740481 -0.231557 1.203512 1.447235 -0.854580 1.309789 -0.339336 -0.758094 -0.640146 -1.326760 -1.505812 2.210561 -0.529381 -0.279818 -0.222858 -0.591640 0.823884 -0.238601 1.648438 -3.413488 0.387260 -0.251261 -1.849397 0.212406 -0.609962 0.587216 0.813147 -0.164742 -1.919580 0.092685 1.034460 0.905794 -0.075694 -0.997054 1.248742 1.448001 -0.307198 1.253660 0.695449 -1.250362 1.374488 0.511357 -0.418798 -0.711772 0.680951 -0.973706 -0.741670 0.053380 -0.120608 1.004581 -0.853429 -0.926227 1.498163 0.556655 -1.135019 -0.247541 0.363605 1.882670
QQ炫舞体验服 -0.738960 -0.607198 0.557173 0.134484 1.184898 0.218302 2.165074 0.824961 0.183235 1.205422 1.272425 -0.127806 -0.685907 1.019241 -0.701619 -0.630833 -0.656687 1.198597 -0.894340 -1.025309 -0.023747 -0.950056 -1.509635 0.527467 -0.499302 -1.895717 2.459257 1.771515 -1.901195 -0.837903 -0.063557 2.127482 -0.750175 -0.622644 -1.174716 0.573688 -0.588798 1.156394 -1.548762 -0.552463 -0.090526 -0.294279 0.523324 -1.204138 -0.313619 0.492409 0.940357 -0.242776 -0.836884 -0.493146 -0.150504 0.688774 0.323288 -1.378828 -0.633000 -0.091104 -2.267783 -1.867096 -0.674811 -0.341223 0.554150 1.181733 1.028304 0.582996
热血江湖 0.870311 0.348915 -0.765454 1.929036 -0.634016 -0.275024 2.012262 -0.669025 -0.270980 -0.156451 0.802114 -0.137273 -1.097102 -0.507174 -1.424415 -1.525708 1.387269 1.584657 -0.779148 -0.752076 0.547848 -0.268824 1.172540 -0.064350 0.584261 -2.340215 0.755317 -0.534207 -2.891874 0.347210 -1.259937 1.289811 -1.304910 0.508287 -2.040249 0.448932 0.436664 -0.949732 -0.793774 -3.233101 -0.068496 -1.560803 0.537956 0.062664 1.516705 0.342175 0.515001 -1.170557 0.373350 1.063556 0.551058 -2.336632 0.514478 0.493474 2.242551 -0.729919 -0.254377 0.471254 0.368687 0.165604 0.153564 0.939213 1.015623 0.293235
NBA2K14 -0.324351 -0.460490 0.162775 -0.109678 0.226237 1.774063 1.183689 -1.743699 -0.099346 -0.809256 0.496963 -1.121279 -1.109571 -2.749985 -1.579454 -2.043925 -1.244327 1.099008 0.170276 0.058164 0.243864 1.291255 -0.558473 -1.615541 0.742622 -0.590705 2.061052 -0.354160 -0.536085 -0.157587 0.371685 1.277818 -0.171439 0.115574 0.358570 0.568086 -1.310433 0.365170 -0.178207 -1.273206 1.377921 0.783276 -1.591242 -0.292685 1.883775 -0.968763 1.149668 -0.678518 -1.341078 -0.430708 -1.399516 -1.591554 -0.308916 0.737876 0.577373 0.808279 0.745704 -0.091881 -0.131460 -0.720552 -0.616828 -0.059894 1.151184 0.202112
天下3 0.342720 -2.748195 0.351635 1.305392 -0.275096 1.990577 1.194531 -0.534062 1.472838 0.632049 -0.247158 -0.434169 0.395941 2.076790 -2.152952 -1.094085 -0.172168 -0.066880 1.263926 0.631587 -1.323738 0.395469 0.317774 -0.332546 1.632650 -0.152055 -0.300714 -0.309250 -1.809446 0.129570 -1.017640 0.674150 -1.320935 1.361866 -0.335657 0.639249 -1.007289 0.237262 -2.001804 -1.827388 -0.135727 -1.480863 0.878366 -0.500436 0.592467 0.729136 0.101804 -1.554458 0.636881 0.047059 0.145972 -1.360672 -1.055442 -3.357764 1.176945 -0.616559 -0.858733 -0.858499 -0.312701 1.141226 -2.120168 1.326071 1.522581 0.915811
怪物猎人Online 0.959611 -1.393406 0.363676 -0.332480 -0.185258 2.280978 1.027102 -2.181551 0.674409 0.330911 1.412233 -0.421351 -2.002246 0.612324 -0.597365 -1.802371 -1.117392 -0.710636 -1.519894 0.272504 -1.973753 -0.386162 1.813280 -0.168278 -0.073881 -0.309972 1.034088 0.779456 -1.396968 1.179774 0.165059 -0.647046 -1.089993 -0.414939 -0.654200 0.942308 -0.071714 0.291712 -0.843379 -1.588456 -0.012261 -0.503865 -0.729640 -0.269194 0.320975 0.231524 0.930157 -1.653219 0.882372 0.472885 0.293728 -0.299642 0.162018 -1.517487 0.394448 0.081065 0.615163 1.063089 -0.504838 1.026469 -1.137768 -0.457571 1.511656 0.838877
九阴真经 0.856726 -2.507424 0.868962 2.724917 0.665434 0.516342 2.291833 -0.108722 1.065551 0.939158 -0.113531 -2.288943 -0.157152 1.760151 -0.671321 -2.302952 0.772183 0.574157 0.736093 1.031459 0.610295 1.071573 0.620110 -0.594027 -0.416827 -0.531900 1.255182 -0.704540 -0.790156 -1.091591 -0.143216 -0.368618 0.286676 -0.039746 -0.717421 -0.596108 -0.995062 -1.097786 0.095008 -1.720191 -0.160395 -1.308415 1.247872 0.503598 0.004928 0.348494 0.688227 -0.796291 0.032312 0.508671 -0.894688 -0.251240 0.857181 -3.014081 -0.130591 -0.255202 0.583296 -0.021486 -0.819752 0.245807 -0.572394 -0.186065 2.109741 1.511457
CGA火线助手 -0.341468 0.906118 0.054113 -0.935424 3.111811 -2.077981 -0.397061 1.221076 0.999668 -0.868572 -1.269884 -0.088677 0.618846 -1.386425 -0.097774 0.399658 1.562583 -1.709979 -0.338774 -0.334223 0.920699 -1.488748 -0.294703 1.016061 -1.193747 -0.889993 -0.290189 0.650751 -1.125776 2.049285 -0.051952 -1.060079 -1.569294 1.539624 -1.503635 -1.741520 -1.804378 2.078362 -0.746364 1.159529 0.729396 -1.374280 -0.591529 -0.760380 0.497931 1.039875 0.896391 1.525826 -0.033990 -0.592813 0.029080 -1.506780 0.459312 -0.065727 -0.545425 0.992004 0.603669 -0.071014 1.055198 -0.883312 -0.653634 -1.095536 -0.033904 1.395122
腾讯QQ轻聊版 -0.678828 -1.605266 -0.575697 0.554334 -0.663255 0.140052 -0.728708 -0.315017 -1.266814 0.437352 -0.528903 -1.563465 0.005665 2.701750 -2.274371 -1.934206 -1.946283 1.066291 1.838198 2.145351 2.303964 0.574396 0.909868 1.145875 -0.540057 -2.660473 1.474456 0.376605 0.826815 -0.140345 2.141001 -0.189285 -0.712695 -0.897589 -0.269284 -0.075733 -0.144577 1.127257 -0.915526 -1.471844 -0.053520 -1.312578 -0.991825 0.191420 -0.296583 0.172079 -0.377080 0.086855 0.918418 -0.297345 -0.049164 1.692670 -1.125155 -0.596357 -0.019530 -0.876588 -0.325285 -0.823154 -0.353628 0.468659 -1.501314 0.803880 -0.324788 0.710576
QQ堂 0.228503 -0.295658 -0.293314 1.195927 -1.119936 1.048508 1.134011 0.074339 1.940224 0.265130 0.979515 0.320582 -2.529039 -0.220462 0.639945 -1.720404 -1.279818 1.335199 0.806175 -1.315750 0.677554 -0.091401 1.148037 -1.198726 0.523780 -1.854228 2.223286 0.724131 -3.053018 -0.096743 0.225911 -0.125618 -2.270515 -0.611937 -0.307744 -0.362343 -0.643511 -0.750074 -1.704283 0.150645 -0.052624 -0.081150 1.291623 -0.089027 1.183579 0.778230 1.195328 -1.451578 0.586962 -0.582161 -1.082600 0.910657 1.061672 -0.297650 0.069725 0.527611 -0.721324 1.320045 -0.387844 1.342058 -0.873612 1.091464 0.974832 1.757538
新天龙八部 0.897931 0.006734 0.517323 0.406235 0.472096 1.106493 -0.660284 -0.497516 1.570984 1.062358 0.508495 -0.110534 -1.356111 1.702243 -2.147799 -0.344712 1.305497 1.070797 -0.524493 0.457120 -0.436711 -0.323049 1.394490 -0.277794 0.420035 0.535518 1.146271 -1.578576 -1.056511 0.040589 0.474407 0.888900 0.499326 1.279795 -1.445495 -0.574653 -2.065463 -0.944157 -0.122688 -2.464677 0.708485 -1.491523 1.621750 0.434855 0.619283 0.642043 0.894938 -1.302856 -1.025557 -1.679776 -0.412098 -2.000246 0.299179 -0.059046 0.381218 -0.477229 -0.397613 -0.557026 -0.817347 1.262446 -0.012469 1.067858 -0.256146 2.078847
极品飞车9 -0.504131 0.130300 -0.254036 -0.239343 0.202593 1.343575 0.570129 -1.769607 0.965945 -0.413755 0.139829 0.169672 -0.663513 -1.417542 -0.133233 -1.070877 0.281179 0.979917 0.427658 0.804795 -1.928120 0.204413 1.150207 -1.678091 0.197011 -1.717543 1.512733 1.117923 -1.138646 0.757106 1.568657 0.697528 -3.169240 -0.789010 -1.203458 -1.051866 -1.327750 1.230374 -0.099469 -0.101811 -0.798972 -0.090699 -1.456484 0.402325 1.940148 -0.967424 1.880827 -1.462021 -1.120795 -0.966327 -0.865782 -0.994887 -0.240188 0.202064 2.008800 1.118549 -1.218836 -1.419556 -0.317560 -0.680652 -2.102086 0.856784 0.816776 1.797253
反恐行动 0.317086 -1.319688 -0.451527 -0.235776 1.306143 -0.072695 2.541566 -0.245876 0.947020 1.109613 -0.103513 0.315337 -0.549383 1.174145 -1.020590 -0.254684 -0.561948 -0.140813 -0.277325 0.186925 -1.033110 -0.903677 0.609474 -1.672928 -0.180851 -1.590111 0.634114 2.245177 0.337643 1.507076 -0.219628 -0.922006 -1.959671 0.469643 -1.485309 0.311904 -1.330988 0.417697 -0.768160 -2.360480 -1.234276 0.904864 -1.027539 0.164031 -0.028320 0.897952 1.166400 -1.506745 1.541809 -0.083631 1.899311 -0.753620 -2.099490 -1.829305 1.874792 -0.200839 0.445900 1.142913 0.134596 -0.475506 -1.197122 0.121665 -0.068514 1.921296
上古世纪 0.294204 -1.631793 1.080481 1.195268 -1.573295 2.478185 1.071424 -0.841485 0.600757 0.739868 0.756643 -0.806374 -0.890667 2.091614 -0.079716 -1.254388 -1.375752 -0.880957 -1.209511 1.682356 -0.156344 0.047702 0.902441 0.194434 -0.409832 -0.197024 1.154088 0.833448 -1.787421 0.620409 0.038942 0.166313 -1.812746 -0.167669 -0.166564 0.800110 0.233476 0.489002 -0.800881 -2.319418 -0.262657 -0.582204 -1.111964 1.184205 -0.366671 0.192064 0.509750 -1.084745 2.386000 -0.093504 -0.669929 0.257359 -0.189466 -1.203711 -0.166745 -1.838643 0.605818 -0.343581 0.116271 2.412085 -0.084232 -1.161858 1.862295 0.606263
英雄无敌3全集 1.302567 -1.329755 0.281897 1.346148 0.283554 1.257785 1.805598 -1.962493 -1.026537 0.799565 1.285703 -1.455669 -0.447397 -0.918563 -0.605330 -0.595563 -1.271782 0.639498 -1.556584 -1.178797 -0.722560 0.668163 1.924236 -1.916579 1.101276 -1.534971 -0.217395 0.897580 0.167733 0.403318 1.415873 1.617918 -1.165853 1.504462 0.180832 -0.027882 0.196835 -0.880201 -1.830323 -0.956157 1.692339 -1.398503 -0.018762 0.952267 1.069809 -0.485749 -0.283871 -0.847157 -0.260973 -1.049979 -0.234574 -0.062684 -0.596102 -0.691394 2.729205 -0.740401 -0.860291 -1.981016 2.175611 2.211884 -0.744185 -0.388900 1.379707 0.962361
星际战甲 -0.211048 -0.688864 -1.651113 1.843632 0.743858 -0.526057 2.571252 -0.441233 1.487782 -0.771298 1.097618 -1.011222 0.333174 1.406701 -1.120486 1.851991 -1.354459 -0.122849 -1.326312 0.377974 -2.916640 -0.863714 2.362303 0.861617 1.195149 -1.385347 1.329337 -0.272392 -1.930735 1.204921 -1.018314 -0.671008 -1.672472 0.442423 -0.366156 0.519553 -0.019635 -0.223084 -0.679895 -0.786744 -1.450458 0.154406 -1.034428 2.315787 -1.289967 2.513786 -2.058091 -1.063534 0.273144 -0.308718 3.165617 1.406074 0.713836 -1.797858 1.288939 0.801222 1.079583 1.289885 0.069550 0.662506 -0.391552 0.028448 2.519288 0.872951
星际全集 0.506637 0.280060 1.495174 3.944605 -0.232416 -0.511151 3.623409 -0.193041 -1.217504 -0.446716 2.094296 -0.592756 -1.016829 -0.228966 0.418794 -0.220788 0.372538 2.008979 -0.479022 -2.095757 0.265950 1.715458 1.128018 -1.844213 -0.136653 -1.073589 1.937374 0.278628 -0.503126 -0.035317 1.477176 -0.679705 -1.070751 1.004528 -2.341209 -0.112425 0.269468 -1.600222 -0.104321 -0.106330 -1.118311 -1.198265 1.236133 2.573974 0.852602 -0.536910 -0.063036 -0.054271 -1.201302 -1.746483 0.533923 -0.643125 -0.360129 0.794516 3.290937 1.039641 -0.949667 0.250296 1.197407 1.241060 -1.695253 -0.003690 1.932037 1.789677
NBA2K15(WIN7X64) -0.496783 -0.778651 1.566464 0.287102 0.333863 1.699034 0.939907 -1.195953 0.215356 -0.785473 0.842600 -1.048791 -0.391793 -2.909363 -1.988748 -1.335299 -1.443784 1.393666 0.183153 -0.003102 0.090516 2.321170 -0.113558 -2.050820 1.315744 -1.250033 2.431792 -0.840309 -0.541449 0.265096 0.192628 1.547363 0.405594 1.094920 0.773079 0.931193 -0.818072 0.338751 -0.349066 -0.745086 0.795519 0.475548 -1.679714 -0.243987 2.011093 -0.469041 0.474074 -1.280820 -1.811563 -0.069193 -0.802669 -1.226176 -0.104287 -0.225599 0.136925 1.318915 1.300742 -0.067245 -0.269528 -0.791719 -0.478661 0.002309 1.459897 -0.346464
快播QVOD -0.810503 1.279749 0.604364 -0.239744 -0.872029 -0.241286 0.798272 -0.926763 0.624664 0.730209 -0.492673 -1.880792 -0.364630 -2.839953 -1.234215 2.581063 2.265627 -0.110122 -0.488735 0.924526 1.300994 0.772866 0.847764 -0.293865 0.710268 -0.900890 1.038224 1.378371 0.683490 0.538196 -0.268993 -0.265643 -0.511546 -1.956970 -2.616583 0.134002 -2.116263 0.358717 -1.297969 -0.950609 0.948820 -0.351339 -0.485003 2.306407 0.328861 0.613597 1.010958 -2.821143 0.481898 1.478778 -2.356974 -2.274570 0.554187 0.698337 1.289538 -1.777132 -1.478761 -0.808988 0.778541 0.562316 -1.806002 -1.346551 0.799738 1.514934
永恒之塔 0.732280 -1.579008 -1.005530 1.518629 -1.692565 1.272311 2.603945 -0.182801 0.694589 0.887761 0.708144 -0.317374 -0.188486 0.416802 -1.963253 -0.691372 -0.680560 0.174087 -1.801109 -0.547468 0.343028 0.050290 2.362066 -0.284366 -0.262646 -0.436416 0.938155 -0.296777 -1.306907 0.117535 -1.149168 0.491061 -0.412744 -0.896205 -1.489923 0.928296 -1.328202 -1.285393 0.211936 -2.962069 0.280265 0.554789 -0.422657 1.657129 1.048274 -0.324483 1.589358 -1.918247 1.460525 -1.876481 -1.595021 -1.392459 -0.081025 -1.021014 0.940702 -0.934096 -0.515033 -0.150365 1.667376 2.011467 0.580082 -0.401057 1.011738 0.662973
帝国时代1 0.217453 -1.681065 -0.507959 1.868460 0.870801 -0.492679 2.801407 0.056905 -0.653679 -0.435565 1.319694 -0.113815 -0.454158 -0.156505 -0.106175 -1.285433 -0.366544 1.557142 -1.748913 -2.343561 -0.364235 0.939758 0.687800 -2.020176 -0.092166 -0.789356 1.856465 1.962704 0.205246 0.710701 1.609072 1.363964 -0.419989 0.470839 -2.303243 0.599009 -1.278872 -0.033007 -0.025364 -0.504810 1.325307 -1.987732 0.720370 2.057295 0.929572 -0.351825 0.359510 -1.379775 -1.384134 -1.664410 0.237821 0.283384 -0.009650 0.799800 3.201784 -0.084406 -0.775672 -0.830983 1.610591 1.661276 -1.235072 -1.089036 0.249988 1.432821
方舟生存进化(WIN7X64) -0.794803 -0.868023 0.609637 0.178195 -1.660674 1.262455 1.017668 -1.131500 0.500103 0.671154 1.333769 -0.551642 -0.515534 0.849560 -0.918082 -0.296150 -0.993347 0.616672 0.122830 -1.076037 -0.484543 -0.393208 1.951980 -2.090327 0.359894 -1.288521 0.902490 0.747234 -0.402669 0.292149 0.740827 1.400602 -1.378707 -0.836889 0.044429 0.432072 -0.408619 -0.864655 0.633401 -1.269329 -1.053846 0.216572 0.723033 -0.562818 0.670217 -0.574704 -1.480747 -1.093629 0.110071 0.504533 -0.266471 -0.038291 -2.072423 -0.309191 -0.343249 0.801629 1.498885 -0.375540 0.002827 1.105155 1.457831 -0.145072 1.593667 1.555560
狙击精英3(WIN7) 0.725255 -0.930054 -0.713008 -0.051176 0.400218 3.253520 0.099674 -0.023302 0.766765 -0.601113 -0.330713 -1.190866 1.692867 0.029193 -0.434028 1.623914 -1.856529 2.803425 1.098631 0.108198 0.258946 0.914469 -1.316698 -1.722907 2.268143 -1.938126 2.416147 1.639220 0.194691 -2.326576 0.415787 -0.470675 -2.017319 -0.207522 -2.021980 1.122562 -2.304695 1.473666 -0.884599 -1.101466 -1.339478 -1.223044 0.272274 0.132823 2.031915 -1.173771 -0.761677 -0.403685 0.534610 1.879185 -1.057029 0.260567 -1.477988 -0.345351 0.131334 0.575184 -0.369421 -0.598205 3.033762 0.636436 -0.193487 -1.145117 1.886034 2.129147
决战武林 -0.073505 -0.178984 0.354431 -0.970933 0.147111 -2.024965 0.998752 -1.686225 1.110774 1.213175 0.052749 0.749941 -1.209651 0.171038 -2.191741 0.054498 1.214808 -0.647269 -1.277414 -0.001456 -2.919648 0.310042 0.704851 0.918279 0.942046 -1.742005 -0.309973 0.800369 -0.052826 1.645790 1.327719 1.748967 -0.316267 0.728085 -2.336702 -0.691413 0.258037 0.690172 1.401523 -0.296351 -0.239222 -0.396641 -1.181771 0.601565 -0.467614 1.107732 2.314512 -0.707566 0.020478 -2.018195 0.748097 -1.272537 1.089091 -1.776038 1.218890 -0.388919 -0.686278 -0.683101 -0.734963 0.633440 -2.116926 -1.411676 -0.350941 1.645498
地下城与勇士体验版 0.268849 0.137768 -0.158477 2.214527 -0.768750 0.465024 -0.340668 -0.557845 -0.198228 1.019472 0.756841 0.202530 -1.302032 0.900661 -2.157043 0.415258 -0.166969 0.365513 -0.981491 -0.423348 2.537701 -0.864126 0.869161 -0.476379 1.257374 -2.582009 0.503849 1.440618 -1.283444 0.111585 -0.043308 0.727151 -1.936900 1.849929 0.341874 -0.481000 -2.041492 -0.539394 -1.830151 -3.692319 0.448525 -1.348753 -2.870357 -3.866824 -1.396696 2.414825 -0.421681 0.155942 1.596534 0.918738 0.281137 -1.358290 0.311033 0.849550 -0.397472 1.321800 -0.779902 -2.580404 -2.039917 -0.129022 0.863845 0.096038 0.336421 0.783760
帝国时代3全集 0.164396 -0.569406 -0.241541 1.342216 -0.942671 1.147185 2.057203 -2.124228 -0.531648 -0.406838 0.660798 -0.533311 0.348873 0.313409 -0.564478 -0.925006 -0.931369 -0.040188 -0.652916 -0.890109 -0.622038 1.094710 2.033017 -2.216219 -0.443569 -0.239244 2.221376 0.631774 -1.069855 0.954498 1.678310 1.929385 -1.589089 0.763043 -0.964019 -0.443908 -1.061371 -0.028265 -0.028316 -1.301553 0.146114 -2.224901 0.115616 1.761602 1.296522 -0.552564 -1.258667 -1.236203 -0.361183 -0.733482 -0.444864 0.784506 -0.772084 -0.512155 3.066927 0.223267 -0.188829 -0.990905 1.058849 1.681390 0.549871 -1.131518 1.228495 0.487439
真三国无双7 -0.309871 -0.537261 -0.444085 0.366980 0.021208 1.868265 1.483193 -1.236397 -0.726852 -1.414340 0.576355 0.036656 0.039680 0.099785 -0.834836 -1.402695 -0.802345 0.416589 0.280333 0.298513 -0.777510 0.452615 1.445950 -1.793115 0.341028 -1.136286 0.890097 0.353790 -0.002632 -0.064810 1.973119 1.208256 -0.500367 0.348025 -0.961349 0.453460 -0.279308 1.029294 0.009024 -1.112439 0.249749 -0.148512 0.047070 1.278257 1.731188 -1.012709 0.752559 -1.281756 -0.776941 -0.902279 -0.958239 0.984779 -1.022210 -0.125372 -0.115960 1.696099 0.398198 -0.499092 -0.095282 1.410262 0.411864 1.248416 2.009222 1.996655
QQ影音 0.238994 1.234101 0.469849 0.951741 -0.601201 -1.071182 2.455621 0.416347 -0.843289 2.034729 1.152468 -1.871902 1.160401 -0.315171 -0.043769 2.031592 -1.241082 1.789036 -0.854597 0.343057 -0.988664 0.718051 -1.265091 -0.422373 0.611294 -0.660081 0.269895 1.074705 -0.748523 -0.435004 -0.187653 1.451015 -0.566313 1.594751 0.051766 0.477172 -0.112971 0.623285 0.654709 -2.435952 1.174920 0.482748 -1.209414 1.406520 -0.277426 -0.719173 0.026305 -0.792467 0.345843 -0.836471 -1.392510 -0.683213 -0.058360 0.143985 2.066204 -0.646559 -1.687117 -1.194773 0.055972 0.598596 -0.318700 -1.985830 1.080485 2.248709
街机模拟游戏 -0.008446 0.803151 0.788018 1.365496 0.241805 -0.397036 0.854713 -1.393066 -0.794317 0.125653 -0.279802 0.016029 -0.896718 -1.347143 0.052369 -0.877457 -2.376507 1.503682 -0.454036 -2.297170 0.663168 -0.602982 1.324282 -0.713562 1.157866 -1.479800 1.051585 -0.340295 -1.555246 0.206669 1.523655 1.075033 -0.079937 0.480015 -0.633674 1.799212 0.349314 -1.350574 0.025195 -1.401662 0.983514 -0.176091 -0.866853 0.296966 0.570773 -0.605766 0.070035 0.004977 -0.413467 -1.802919 0.588181 0.290869 1.349055 1.536384 1.556248 0.522361 -0.844498 0.668576 1.009185 1.629282 -0.825291 0.746595 2.930977 -0.240371
丧尸围城3(WIN7X64) 0.166510 -0.473581 1.188310 0.319968 -0.516387 1.813796 1.246500 -0.866242 0.146303 -1.806913 0.186935 0.195629 0.098966 -0.022434 -0.951758 -0.132294 -0.905252 0.220962 0.314734 -0.204327 -0.444393 -0.574476 1.327446 -2.285586 0.411040 -0.985887 0.997080 1.395252 -0.546341 0.988956 0.691706 0.586543 -1.579066 -0.853928 -0.877246 0.040461 -0.635912 0.252511 0.753916 -0.120315 -0.686362 -0.217228 -1.415597 -0.003745 0.708929 -0.247485 0.133377 -1.343202 0.754056 -0.489537 0.402964 0.013892 -1.464767 0.311962 -0.215865 0.327076 0.457359 -0.254444 0.333180 1.266315 0.318630 0.336461 2.047071 1.794209
多玩战舰世界盒子 1.780865 -1.585416 0.436272 -1.241919 1.789102 -1.077044 -0.338323 -0.200933 -0.108156 1.439480 1.420545 -2.122721 2.470281 -1.489920 -0.616284 -0.140119 1.213892 0.326045 -1.206185 -0.035916 -0.439448 0.444765 0.258632 -0.066788 -0.683515 -0.999559 0.813257 -0.929924 -1.386256 1.014474 0.753825 0.422493 0.090835 2.270953 -2.006006 -0.040863 -0.073745 -1.281183 0.370820 -1.357802 -1.412543 -1.091376 -0.786211 0.912508 1.502828 0.511905 -0.357606 -2.333592 -0.825331 0.977012 -0.920017 2.071811 -0.501274 -2.126364 2.467528 -0.970706 -1.154193 -1.297072 1.563280 1.671143 0.332371 -0.060871 2.434877 0.205402
孤岛危机3(WIN7) -0.203776 -0.597431 0.740272 -0.017834 0.035175 1.174563 1.421740 -0.974212 -0.119583 -1.669141 0.988189 0.181188 0.331883 -0.382231 -0.951595 -0.386451 -0.583856 0.794237 -0.003977 0.219089 -0.294510 -0.651769 1.406582 -2.105793 0.475156 -0.177462 0.604752 1.146287 -0.083469 0.738538 0.436832 0.569846 -2.394078 -0.172894 -1.037630 0.096166 -0.969035 0.342570 0.466256 -0.560464 -0.834954 0.368690 -1.222905 0.389724 0.693831 -0.059035 -0.040146 -1.255615 0.690904 -0.233228 -0.199607 0.138388 -1.624034 0.557046 0.414408 0.195286 0.684649 -0.744651 0.521882 1.203298 0.328304 -0.789649 1.744161 1.539754
完美国际2 1.508957 -0.293224 1.349114 2.577652 -0.848937 -0.074070 0.923331 -0.042956 0.684925 1.823576 -0.287368 -0.796943 -0.879512 0.702620 -0.847635 0.183150 -0.078148 -0.096085 -1.404161 -0.701795 -1.336470 0.598831 0.400687 0.867640 1.994197 -0.040592 0.364254 1.444508 -0.613122 0.926843 -1.053113 -1.041357 -1.275341 0.730754 -0.482021 -0.162834 -0.209845 1.439891 -1.132454 -3.227954 0.744168 0.992533 0.632062 0.771655 0.624733 1.265048 0.442938 -0.891776 0.760850 -0.118919 -1.220436 -1.792498 -0.517656 -1.345334 1.132463 -1.817134 -0.608300 -0.804742 0.174417 2.204694 -1.721731 0.018372 0.068155 0.842841
梦塔防 1.471354 -1.668533 0.054417 2.504121 -2.211217 -0.000757 0.380369 -0.096833 -0.490952 -0.736204 -0.651807 -2.106574 0.869930 -0.209291 0.585921 -0.229889 -0.294556 -0.918844 -0.476333 -0.887872 -0.042862 0.175710 0.729388 -0.095119 0.071729 -1.481953 1.385524 -0.233725 -0.736226 1.039042 0.061644 2.133166 -0.524548 0.338512 0.554333 0.744216 -0.610474 -1.914089 -2.231386 -1.661434 0.478705 -1.292491 -0.783417 0.824453 -0.448742 1.431835 0.091441 -0.683515 -0.159683 -1.411533 -0.753544 0.918031 2.625164 -0.327073 0.510673 0.378178 -1.186172 -0.531380 0.595165 0.331983 -1.222068 -1.676471 1.134452 -0.183607
QQ幻想世界 1.355693 -2.126930 -0.467927 1.776304 -1.635249 0.563953 1.217959 1.085215 1.980417 -0.500284 0.759636 0.028401 -1.260203 1.441535 -1.054650 -2.064817 -2.308573 3.137847 0.049174 0.383539 0.301486 -0.661310 -0.526736 0.190421 1.651785 -1.046362 1.705196 0.547274 -2.241427 0.054558 -0.450108 1.356256 -0.044931 -0.062859 -0.275974 1.178507 -0.983171 -0.168682 -1.591495 -3.570267 -0.598885 -1.567975 -0.424927 0.511675 0.429321 -0.728512 0.723989 1.149118 1.191607 -0.720885 0.265879 -0.406332 0.336947 -0.522926 0.025410 -0.589480 0.911617 -0.858858 0.269245 1.152005 -1.180298 2.020726 -0.273983 0.644593
魔兽争霸官方对战平台 1.296886 0.727827 2.678171 0.302990 -1.550280 1.965996 1.234447 -1.217187 0.295638 1.002408 0.976801 -0.369491 0.323810 -0.238841 0.313716 -3.065211 0.227628 -1.061790 0.451613 -0.656633 -0.325670 -1.390767 1.030543 -1.557987 -1.208059 -1.032767 -0.557654 -0.127352 0.474622 0.724520 1.633512 1.279536 0.118690 1.836210 1.312059 -3.031081 -1.963533 -2.216200 -4.194175 1.169347 0.178831 0.319917 -3.572165 0.348656 -0.477800 0.087100 0.655528 -1.411183 -0.451982 -0.555652 -0.429625 0.860255 -0.491124 -0.097810 1.457554 0.285338 -1.085341 -0.893177 -2.023291 0.091170 -0.370918 1.627504 1.658510 1.606934
突击英雄 0.990475 -0.950662 0.079343 0.100671 1.564981 0.394813 1.407741 -1.447743 0.816137 -0.244425 -0.522188 0.316527 -0.069839 1.293288 -0.809919 -0.761365 -1.350508 -0.382567 -0.243600 0.300693 -1.088264 -1.238323 1.622841 -1.314103 -1.057231 -1.782641 0.507085 0.834620 0.139272 1.617245 -0.036253 -0.349517 -1.754070 0.990798 -0.912452 1.088063 -1.605323 0.517149 -0.809263 -2.962138 -1.445039 -0.032309 -0.469491 1.017055 -0.276373 0.756475 0.916912 -2.092058 1.811963 0.485307 1.055586 0.735589 -0.592156 -2.387489 1.322785 0.052339 0.676410 0.174781 -0.219162 0.466290 -0.941093 -0.410577 0.018875 1.641773
梦想世界 0.610768 -0.700103 -0.051777 1.543788 -0.608095 0.568086 0.271826 0.202281 -0.660720 0.974966 -0.060634 0.451443 -0.299134 1.173581 -0.348153 -1.063462 -0.798814 -0.208000 0.188515 0.698812 -0.440470 1.162177 -0.377301 -0.273289 1.622906 -1.211381 -0.123531 0.410609 1.165336 -1.510191 1.547176 0.333765 1.531914 0.533164 -1.442676 0.336270 -1.371356 1.402005 -1.248870 -1.362064 0.150986 0.468382 0.673757 0.089671 2.028918 -0.838454 -0.168539 0.147161 0.575327 -0.703366 -0.750712 1.156760 0.816164 -1.218773 -1.093935 -0.387671 -0.496196 0.579573 0.921284 1.620278 -2.468052 1.351927 -0.174062 0.962252
QQInternational -1.611549 -1.679077 -0.411280 1.933658 -1.144785 -1.720203 -1.271744 0.770815 -1.360586 0.943082 0.844828 -0.541783 -1.333263 -0.404093 -0.400973 1.335555 -0.775416 1.719905 -0.927872 0.420870 1.406330 -0.900187 2.206367 1.074123 0.690936 -1.847685 -0.367601 2.947280 -0.985095 -1.060787 -0.436056 0.588795 -0.328497 0.493010 -1.612878 0.139746 0.670236 3.537965 -0.151609 -0.714728 0.898231 -1.551213 -0.001926 0.780596 -0.069929 -0.538537 1.304770 0.978144 -0.444108 0.331512 -0.040027 0.069869 1.413332 0.052293 1.563857 -0.203295 -0.354824 -1.594194 -0.834665 0.040423 -1.207089 -0.159535 2.528747 -0.542312
流星蝴蝶剑七夜听雪 0.344056 -0.561015 -0.389262 0.445345 0.035879 2.015239 0.970234 -2.418352 -0.961934 -0.266942 -0.073157 0.374985 -1.125085 1.150126 -0.539144 -0.374403 0.832775 0.039520 0.055040 -0.381903 -0.166021 0.371312 1.666469 -2.264302 0.301233 -1.933368 1.078397 1.651637 -0.847383 0.201172 1.934382 0.644756 -2.544714 0.667300 -2.048218 0.158679 -0.464792 0.963670 -0.085313 -0.328341 0.061296 -0.732782 -0.266160 -0.845104 1.737714 -0.905536 1.870635 -0.312340 -1.514145 -1.505867 -0.288615 -0.481994 -0.207761 0.133439 0.906105 2.017356 -0.800505 -0.346553 0.446372 -0.402273 -1.236084 0.016352 1.926182 1.349622
洛奇英雄传 0.394680 -1.842240 1.413777 1.423804 -0.329387 1.906032 0.879272 -0.620511 -0.522190 0.831508 0.517941 -0.986908 0.137176 1.240021 -1.057555 -0.546314 -1.108572 -0.761433 -1.841522 -1.313312 -0.530915 -1.847664 -0.662484 0.233788 -0.004598 -0.462792 2.278344 0.225155 0.370717 0.487593 0.566241 -0.442304 -0.194710 0.322243 0.315908 1.103862 -1.573671 -0.822324 -1.661836 -2.769917 0.024990 -1.189104 -1.825393 0.864675 -1.158108 0.931544 0.065353 -1.313140 -0.134468 0.937432 1.585622 -1.170563 -0.211671 -1.223379 0.403949 -1.862336 0.114564 0.993151 -0.247424 2.038906 1.309938 -0.287014 1.460433 1.104502
英雄三国 -1.823724 -1.889093 -0.286919 1.441981 0.473514 0.015777 0.892627 -0.606753 1.039944 0.702992 -1.434364 -0.307214 -1.056922 0.432148 -0.583778 -1.239976 -1.456170 -0.833995 -0.919175 0.169853 0.205962 -0.113421 0.795939 -0.715209 -0.326930 -1.610328 1.423586 -0.518810 -0.746881 0.646984 0.358889 0.367245 -0.593039 1.509272 -0.685157 0.189341 -1.823161 -0.107828 -0.492710 -2.354336 -0.598237 -0.747914 -0.638256 1.377373 -0.083916 1.118779 0.880610 -2.586681 -0.046227 -0.215170 -0.312546 0.027533 -0.126996 -0.712449 2.391389 0.209967 0.352354 -0.474803 -0.961138 -0.352105 -1.162991 0.671472 0.278487 1.674344
辰龙游戏 0.657461 -1.135886 -0.467885 0.408219 -0.611135 0.512798 0.114035 0.015524 0.783775 1.404526 1.341762 -0.575781 -0.927317 -0.783519 1.820570 -0.025366 0.003188 0.333273 0.391211 -0.610841 0.471467 -0.573533 -1.599072 0.708098 1.902942 -2.276442 0.600358 1.395070 -2.377496 0.141525 1.650815 0.072538 0.307488 0.463470 -0.095336 -0.448487 -0.528069 0.600589 -0.915573 0.335386 0.828539 -2.778474 0.559482 0.916113 0.122324 -1.677161 -0.420093 1.588713 -2.102343 -0.223788 -0.991711 0.156971 0.533668 0.632506 0.819097 -2.695934 -1.649881 -1.912876 0.877847 1.766580 -0.414761 0.057591 1.379207 0.765766
爱玩MC -0.611617 -1.294089 1.849674 -0.067161 1.318679 -0.643113 -0.016076 0.478885 -0.747810 -0.505964 1.149463 -0.620369 0.014042 -0.225650 1.323155 -1.570611 0.236076 -0.351950 -0.996327 -1.012054 0.363857 -0.521465 -1.034663 -0.794899 -0.897229 -1.039884 1.574567 2.450096 -0.290778 -0.789647 1.148522 -0.094504 -0.664164 0.594620 -1.594134 -0.163568 0.859705 -0.680249 -0.289137 0.348147 1.029806 0.279490 1.552027 -0.224035 1.279927 -0.039321 -1.229494 0.619446 -0.729297 1.627608 1.964298 -0.590236 0.304439 0.877441 -0.338149 -0.846266 0.280564 1.333076 1.655464 0.849043 -0.216764 -0.864848 -0.077352 3.595779
三角洲特种部队6 0.961025 -0.081194 0.458355 -0.050537 0.715651 0.448291 1.864772 -2.116909 0.250094 -1.787960 0.481880 0.277733 -0.323935 -0.593875 -0.552817 -0.324482 -1.081923 1.640925 0.158129 -0.369667 -1.077457 -0.628861 1.269566 -2.367134 0.412600 -1.233746 1.495347 1.216186 -0.936746 0.327326 1.333336 0.857814 -2.204007 0.048042 -1.991284 -0.792993 -1.510364 0.832806 0.203387 -0.442433 0.108081 -0.291868 -0.957392 0.975245 1.431464 -1.006548 0.615111 -0.703433 -0.601120 -0.405468 0.112259 -0.285335 -1.295812 -0.603076 1.286841 1.265097 0.388257 -1.226676 0.926536 0.888403 -1.186843 -0.564432 1.422137 1.975271
火影忍者究极忍者风暴3 -1.048139 0.130687 0.453438 1.222192 -0.479753 2.595162 0.786599 -1.757437 0.464611 -2.214715 0.332188 -0.581389 -0.393721 0.405326 -0.704521 -1.091954 -0.611478 0.202977 0.719350 -0.881323 0.592234 -0.603113 1.132841 -1.071762 1.132979 -1.411413 1.408518 0.689969 -0.450186 -0.152993 1.887212 1.783462 -0.435308 0.015069 -1.357786 1.629114 -0.937600 -1.084823 -0.223801 -0.687618 -0.378993 -0.345259 -1.130698 0.765418 0.373761 -0.137498 0.474363 -1.513263 0.270363 -1.421259 -0.723388 0.354839 -0.010053 0.974795 -0.307599 0.842884 0.491246 0.313778 0.241602 0.528965 0.179100 -0.052223 1.776348 1.735583
红警3典藏版 1.364868 -0.279019 1.750231 1.005755 -0.883684 1.382496 -0.090410 -0.950553 -0.022479 -0.111599 0.614719 -1.256030 -1.018050 0.404536 0.258473 0.283731 -0.939105 0.709070 -0.372735 -0.366649 -0.308797 1.304025 3.435284 -2.217955 0.809894 -1.262308 1.673382 0.904322 -1.259084 0.702101 1.657383 -0.763798 -2.118625 0.454588 -0.806001 -0.225840 -0.192412 -0.050199 0.692681 0.014027 -0.190551 -1.353838 -0.937603 1.169009 1.175001 -1.068659 0.241519 -2.118116 -0.300015 -0.707426 -1.327734 0.624942 -1.197584 0.185497 2.250093 0.099937 1.016800 -0.451336 0.419800 0.825379 -1.166606 -0.850336 1.322305 2.027314
热血无赖(WIN7) -0.051527 -0.321882 1.050166 -0.133035 -0.244274 1.830622 0.633760 -1.359559 0.919734 -2.005539 0.215376 -0.809193 -0.077356 0.141752 -1.229752 -1.086911 -0.567867 2.003038 -0.605347 0.400134 -0.100098 -0.135525 1.722048 -1.057829 0.876514 -1.165382 1.163418 0.945811 -0.601105 -0.098575 0.376135 1.366048 -1.170855 -0.957590 -0.408661 0.211507 -0.547314 0.613905 0.194422 -0.256883 0.123275 0.135436 -1.178292 -0.089872 0.808345 -0.879995 0.058965 -1.681869 -0.565445 0.225278 0.116682 -0.306463 -0.731981 -0.181296 -0.777306 0.713012 1.107914 0.001804 0.214277 0.280430 0.203783 -0.523283 1.106925 1.447718
生化危机6 -0.630340 -0.970084 0.778630 0.826054 0.129431 1.448351 1.331152 -0.720226 0.002570 -1.307631 0.684635 0.663530 0.661523 0.271071 -0.927064 -0.268071 -0.459146 1.261367 -0.070070 -0.210011 -0.723756 -0.502563 1.763994 -2.338047 0.848146 -0.596565 1.581741 1.231072 -0.151004 0.116133 0.646502 0.128726 -2.467086 -0.846586 -0.941801 0.130476 -1.454545 0.423872 0.608886 -0.251663 -0.261910 0.636393 -1.232462 0.454596 0.282317 0.060240 0.470796 -1.355931 -0.110434 -1.008485 0.614220 -0.197544 -1.228303 0.519226 0.293004 0.782832 0.734294 -0.570508 0.443934 1.542751 -0.421856 -0.420559 1.850264 1.839130
红警3起义时刻 0.834990 -0.332658 1.016270 0.822833 -0.541930 1.452672 0.085693 -1.393848 -0.387918 -0.253127 0.284633 -1.085956 -1.022331 0.165383 0.105187 -0.249553 -1.251496 0.165955 -0.420866 -0.697758 -0.371872 1.290413 2.715172 -2.222222 0.619946 -1.127145 1.729071 0.912333 -1.072445 0.643195 1.953704 0.008284 -2.467915 0.296396 -0.854939 -0.249986 -0.566915 0.342136 0.260763 -0.723768 -0.065243 -1.446702 -0.065162 1.265862 1.411733 -1.275895 -0.114663 -1.973355 -0.312420 -0.416637 -1.225798 0.567040 -1.118280 0.013286 1.417048 0.475432 0.980132 -0.779590 0.153345 0.504436 -0.457880 -0.695665 1.523721 1.741965
大话西游2经典版 0.968770 -1.069651 -0.049968 1.645277 -0.640409 -0.967695 2.111963 -0.035930 1.006575 -0.267903 -0.412285 0.677474 -0.452720 1.544263 -0.952588 -0.612727 0.745444 -0.936061 1.616781 0.232411 -0.376000 -0.015204 -0.382625 -0.815179 0.623338 -1.488099 -0.539585 -0.723192 -2.430195 1.951367 0.962499 0.965380 -1.119451 1.306648 -0.809949 -0.317615 -1.107203 0.476101 -0.879551 -1.598181 -0.765257 0.253078 -1.252943 0.753017 1.437959 0.682192 -0.171273 -0.815456 1.432657 -2.729017 -0.603783 0.474231 0.596794 -1.626572 1.486749 -0.200837 -1.184254 -1.444061 0.099614 1.523136 -0.743042 0.481984 -0.174202 1.195077
全民欢乐斗地主 -0.610468 -0.176278 -0.664661 0.174681 0.478730 -1.064309 1.458909 -0.411450 1.468474 1.121496 0.702267 -0.780489 -0.686039 -2.189501 0.238189 0.132826 -0.288952 1.297027 -0.242226 -1.299373 -1.302813 -0.336857 0.692718 -1.525430 -0.379448 -3.777356 1.284066 1.647954 -2.346073 0.292525 0.340914 1.176602 -1.418815 -0.765125 -1.658034 0.110551 -0.792139 1.834688 -1.496146 -1.375245 0.755490 0.956638 1.290906 0.570755 1.519309 0.111953 1.714995 0.243095 -0.962340 -1.199550 -0.953675 0.619070 1.612678 -0.987281 0.936518 0.483633 -0.029482 -0.944344 -0.100635 -0.079684 -1.088768 0.167288 0.808093 -0.282685
古墓丽影10周年纪念版 -0.215826 -0.352478 1.250001 -0.076009 0.870492 1.336473 0.756400 -1.895603 0.763967 -1.753789 0.695547 0.162715 0.020728 -0.140817 -0.791684 -1.002829 -1.085630 2.116637 1.000028 -0.454148 -0.392561 0.055800 1.628107 -1.558473 -0.354431 -0.653871 1.598226 1.654580 0.043982 1.334116 0.590592 1.002256 -1.574038 -0.563692 -1.879041 0.325252 -0.837902 0.550668 0.874341 -0.084793 -1.512136 -0.149928 -0.699560 1.110004 1.020585 0.885168 1.158077 -1.627745 -0.902916 -1.996466 -0.171187 -0.821376 -0.555154 1.284595 0.057725 0.039450 1.255492 -0.364163 0.470383 1.376146 -0.599489 -0.067964 2.393867 1.753146
